svm_type c_svc
kernel_type rbf
gamma 0.0012738853503184713
nr_class 2
total_sv 3675
rho 0.6981202088706252
label 1 -1
nr_sv 1865 1810
SV
1 173:1 174:1 175:1 176:1 177:1 178:1 179:1 180:1 181:1 182:1 201:1 210:1 211:1 229:1 230:1 231:1 239:1 240:1 260:1 261:1 262:1 263:1 264:1 265:1 268:1 269:1 293:1 294:1 297:1 298:1 322:1 323:1 326:1 351:1 352:1 355:1 380:1 383:1 408:1 411:1 437:1 439:1 465:1 468:1 493:1 494:1 496:1 497:1 522:1 525:1 526:1 550:1 551:1 554:1 555:1 579:1 580:1 582:1 609:1 785:1 
0.94719979610963656 99:1 127:1 128:1 129:1 155:1 157:1 183:1 185:1 209:1 210:1 211:1 213:1 238:1 241:1 266:1 269:1 294:1 297:1 322:1 325:1 350:1 351:1 353:1 354:1 355:1 379:1 383:1 407:1 409:1 410:1 411:1 435:1 439:1 463:1 466:1 467:1 491:1 494:1 495:1 519:1 521:1 547:1 549:1 575:1 577:1 603:1 605:1 631:1 633:1 659:1 661:1 689:1 785:1 
1 16:1 25:1 44:1 53:1 71:1 74:1 75:1 76:1 77:1 78:1 79:1 80:1 81:1 99:1 102:1 127:1 130:1 154:1 155:1 158:1 181:1 182:1 186:1 209:1 213:1 214:1 235:1 236:1 237:1 240:1 243:1 263:1 267:1 271:1 272:1 290:1 291:1 294:1 295:1 297:1 299:1 317:1 318:1 321:1 322:1 325:1 326:1 327:1 328:1 344:1 345:1 348:1 349:1 355:1 370:1 371:1 372:1 376:1 399:1 403:1 426:1 427:1 428:1 429:1 432:1 457:1 460:1 485:1 488:1 512:1 513:1 516:1 539:1 540:1 543:1 566:1 567:1 570:1 572:1 594:1 600:1 601:1 602:1 603:1 622:1 632:1 633:1 649:1 650:1 661:1 662:1 677:1 690:1 703:1 704:1 705:1 719:1 731:1 747:1 775:1 785:1 
1 216:1 217:1 218:1 219:1 220:1 221:1 243:1 244:1 249:1 250:1 271:1 275:1 276:1 277:1 299:1 302:1 327:1 329:1 355:1 357:1 382:1 383:1 385:1 399:1 400:1 401:1 402:1 403:1 404:1 405:1 406:1 407:1 408:1 409:1 413:1 426:1 427:1 440:1 441:1 453:1 457:1 458:1 459:1 460:1 461:1 462:1 465:1 466:1 467:1 468:1 480:1 484:1 491:1 492:1 507:1 510:1 511:1 535:1 537:1 538:1 563:1 564:1 565:1 785:1 
0.029760227250636342 202:1 203:1 204:1 205:1 230:1 233:1 234:1 235:1 258:1 259:1 263:1 264:1 267:1 268:1 269:1 288:1 292:1 293:1 294:1 298:1 299:1 317:1 318:1 327:1 328:1 346:1 347:1 350:1 351:1 352:1 353:1 356:1 376:1 377:1 379:1 381:1 382:1 384:1 410:1 413:1 438:1 441:1 466:1 467:1 469:1 470:1 495:1 498:1 523:1 524:1 526:1 552:1 553:1 554:1 555:1 785:1 
1 14:1 24:1 41:1 42:1 51:1 52:1 68:1 69:1 75:1 76:1 77:1 78:1 95:1 96:1 103:1 122:1 123:1 131:1 150:1 159:1 169:1 170:1 171:1 172:1 173:1 174:1 175:1 176:1 177:1 178:1 186:1 210:1 211:1 213:1 214:1 240:1 243:1 256:1 257:1 269:1 270:1 271:1 272:1 273:1 284:1 285:1 301:1 302:1 314:1 330:1 341:1 358:1 370:1 373:1 386:1 393:1 394:1 398:1 399:1 401:1 414:1 423:1 424:1 427:1 428:1 442:1 443:1 444:1 445:1 446:1 452:1 456:1 457:1 475:1 476:1 478:1 479:1 480:1 481:1 484:1 506:1 509:1 512:1 537:1 541:1 565:1 569:1 593:1 597:1 621:1 625:1 649:1 652:1 677:1 680:1 705:1 709:1 724:1 725:1 726:1 734:1 737:1 752:1 754:1 762:1 765:1 780:1 782:1 785:1 
0.70851006159496566 9:1 12:1 37:1 40:1 54:1 55:1 56:1 65:1 66:1 67:1 68:1 80:1 81:1 83:1 106:1 107:1 133:1 134:1 136:1 160:1 161:1 164:1 187:1 188:1 191:1 192:1 214:1 215:1 218:1 219:1 242:1 245:1 246:1 270:1 273:1 298:1 301:1 319:1 320:1 321:1 322:1 323:1 324:1 325:1 326:1 329:1 346:1 347:1 356:1 373:1 374:1 383:1 384:1 401:1 405:1 406:1 407:1 408:1 409:1 410:1 411:1 429:1 432:1 456:1 457:1 460:1 484:1 487:1 511:1 514:1 515:1 538:1 542:1 565:1 566:1 568:1 569:1 593:1 597:1 621:1 625:1 649:1 650:1 651:1 652:1 653:1 785:1 
1 178:1 179:1 180:1 181:1 206:1 209:1 234:1 238:1 262:1 265:1 290:1 293:1 318:1 321:1 346:1 349:1 374:1 377:1 402:1 405:1 430:1 433:1 434:1 435:1 458:1 459:1 464:1 465:1 466:1 487:1 488:1 494:1 516:1 517:1 518:1 519:1 522:1 547:1 548:1 550:1 576:1 577:1 578:1 604:1 606:1 633:1 634:1 785:1 
0.88726758078097834 3:1 12:1 27:1 28:1 29:1 30:1 31:1 40:1 54:1 55:1 67:1 68:1 82:1 85:1 86:1 87:1 88:1 89:1 90:1 91:1 92:1 93:1 94:1 100:1 110:1 111:1 112:1 128:1 130:1 156:1 158:1 159:1 184:1 187:1 212:1 215:1 240:1 243:1 267:1 268:1 271:1 294:1 295:1 298:1 299:1 321:1 322:1 325:1 326:1 349:1 352:1 353:1 377:1 380:1 405:1 408:1 432:1 433:1 436:1 459:1 460:1 463:1 464:1 487:1 490:1 491:1 515:1 518:1 542:1 545:1 570:1 573:1 598:1 601:1 626:1 628:1 629:1 654:1 656:1 683:1 785:1 
0.34713531021691907 128:1 136:1 137:1 138:1 139:1 140:1 155:1 156:1 163:1 164:1 183:1 185:1 191:1 197:1 198:1 199:1 200:1 201:1 202:1 211:1 213:1 218:1 230:1 231:1 239:1 241:1 247:1 259:1 267:1 270:1 275:1 287:1 295:1 298:1 303:1 315:1 323:1 326:1 331:1 343:1 351:1 354:1 359:1 360:1 372:1 379:1 382:1 389:1 400:1 406:1 407:1 410:1 417:1 418:1 428:1 433:1 434:1 437:1 446:1 447:1 448:1 456:1 461:1 464:1 484:1 489:1 491:1 494:1 495:1 497:1 512:1 516:1 519:1 521:1 524:1 539:1 544:1 546:1 549:1 552:1 566:1 567:1 572:1 574:1 576:1 580:1 581:1 582:1 593:1 594:1 599:1 600:1 602:1 603:1 604:1 605:1 610:1 611:1 621:1 629:1 633:1 634:1 635:1 639:1 649:1 655:1 656:1 664:1 665:1 667:1 677:1 693:1 695:1 704:1 721:1 724:1 731:1 732:1 749:1 752:1 758:1 759:1 778:1 780:1 785:1 
1 257:1 258:1 259:1 260:1 283:1 284:1 285:1 289:1 313:1 314:1 318:1 342:1 343:1 344:1 347:1 348:1 349:1 350:1 351:1 352:1 353:1 372:1 373:1 381:1 382:1 386:1 387:1 388:1 401:1 402:1 410:1 411:1 413:1 414:1 417:1 430:1 431:1 432:1 433:1 434:1 435:1 436:1 440:1 444:1 464:1 465:1 471:1 472:1 493:1 494:1 495:1 497:1 498:1 499:1 524:1 561:1 562:1 563:1 564:1 565:1 593:1 594:1 622:1 645:1 646:1 647:1 648:1 649:1 650:1 785:1 
1 173:1 174:1 175:1 176:1 177:1 181:1 182:1 183:1 184:1 185:1 186:1 197:1 198:1 199:1 200:1 206:1 207:1 208:1 214:1 215:1 243:1 271:1 298:1 299:1 322:1 325:1 326:1 350:1 352:1 353:1 377:1 380:1 405:1 408:1 433:1 436:1 462:1 464:1 490:1 492:1 517:1 520:1 545:1 548:1 573:1 575:1 576:1 601:1 602:1 603:1 785:1 
1 115:1 116:1 117:1 146:1 174:1 201:1 202:1 230:1 256:1 257:1 258:1 286:1 313:1 314:1 342:1 369:1 398:1 426:1 454:1 482:1 510:1 537:1 538:1 561:1 562:1 563:1 564:1 590:1 592:1 613:1 617:1 618:1 619:1 620:1 621:1 622:1 623:1 624:1 625:1 626:1 627:1 628:1 629:1 630:1 631:1 632:1 633:1 634:1 635:1 636:1 637:1 638:1 639:1 640:1 642:1 643:1 644:1 785:1 
1 146:1 147:1 148:1 149:1 174:1 177:1 202:1 203:1 205:1 206:1 207:1 231:1 236:1 237:1 238:1 259:1 260:1 266:1 267:1 268:1 288:1 289:1 290:1 291:1 292:1 296:1 320:1 321:1 324:1 325:1 350:1 353:1 354:1 379:1 382:1 408:1 411:1 436:1 439:1 464:1 467:1 468:1 493:1 496:1 497:1 521:1 522:1 525:1 526:1 550:1 551:1 554:1 555:1 579:1 580:1 583:1 608:1 609:1 612:1 637:1 638:1 639:1 785:1 
1 203:1 234:1 260:1 262:1 288:1 290:1 316:1 318:1 343:1 346:1 371:1 374:1 399:1 402:1 427:1 430:1 455:1 458:1 483:1 486:1 487:1 488:1 489:1 490:1 491:1 492:1 493:1 494:1 495:1 496:1 511:1 512:1 524:1 525:1 540:1 541:1 548:1 549:1 553:1 554:1 569:1 570:1 571:1 572:1 573:1 574:1 575:1 578:1 579:1 580:1 581:1 785:1 
1 68:1 69:1 97:1 98:1 122:1 123:1 126:1 127:1 152:1 155:1 180:1 183:1 208:1 211:1 236:1 239:1 240:1 264:1 265:1 268:1 269:1 293:1 294:1 297:1 298:1 322:1 323:1 326:1 351:1 354:1 379:1 382:1 407:1 410:1 435:1 438:1 463:1 466:1 491:1 494:1 518:1 522:1 546:1 549:1 575:1 577:1 603:1 606:1 631:1 634:1 659:1 661:1 687:1 689:1 696:1 697:1 698:1 699:1 724:1 727:1 752:1 753:1 754:1 755:1 785:1 
1 259:1 261:1 262:1 263:1 264:1 266:1 285:1 286:1 288:1 293:1 295:1 296:1 297:1 298:1 299:1 300:1 301:1 302:1 303:1 304:1 313:1 332:1 333:1 340:1 361:1 368:1 369:1 389:1 397:1 398:1 399:1 416:1 417:1 428:1 429:1 430:1 431:1 432:1 433:1 434:1 435:1 436:1 442:1 443:1 444:1 449:1 450:1 464:1 465:1 470:1 477:1 478:1 479:1 493:1 494:1 497:1 498:1 507:1 508:1 522:1 523:1 524:1 525:1 536:1 561:1 562:1 564:1 590:1 593:1 618:1 621:1 622:1 647:1 650:1 675:1 678:1 703:1 704:1 707:1 732:1 733:1 735:1 761:1 764:1 785:1 
1 113:1 114:1 134:1 142:1 143:1 161:1 162:1 163:1 171:1 188:1 191:1 200:1 214:1 215:1 218:1 219:1 225:1 226:1 229:1 230:1 242:1 245:1 246:1 254:1 255:1 258:1 262:1 263:1 264:1 265:1 266:1 267:1 268:1 269:1 272:1 273:1 283:1 284:1 286:1 287:1 288:1 289:1 290:1 298:1 299:1 312:1 315:1 317:1 327:1 328:1 337:1 338:1 339:1 340:1 343:1 345:1 356:1 368:1 371:1 373:1 381:1 384:1 399:1 401:1 402:1 409:1 412:1 426:1 430:1 431:1 432:1 433:1 434:1 435:1 440:1 454:1 463:1 467:1 468:1 483:1 491:1 492:1 494:1 495:1 505:1 506:1 507:1 508:1 511:1 520:1 521:1 522:1 536:1 539:1 564:1 567:1 592:1 595:1 620:1 623:1 648:1 651:1 670:1 676:1 679:1 697:1 698:1 699:1 704:1 707:1 724:1 727:1 728:1 732:1 735:1 752:1 753:1 760:1 763:1 781:1 785:1 
1 11:1 39:1 67:1 68:1 69:1 95:1 97:1 123:1 125:1 151:1 153:1 179:1 181:1 206:1 209:1 235:1 237:1 263:1 265:1 291:1 294:1 319:1 322:1 347:1 350:1 375:1 378:1 403:1 406:1 431:1 434:1 459:1 462:1 487:1 490:1 515:1 518:1 543:1 546:1 547:1 571:1 572:1 575:1 576:1 600:1 601:1 604:1 605:1 629:1 630:1 633:1 634:1 658:1 659:1 662:1 687:1 688:1 689:1 690:1 723:1 749:1 750:1 752:1 753:1 777:1 780:1 785:1 
1 402:1 404:1 429:1 430:1 431:1 432:1 433:1 443:1 445:1 456:1 457:1 461:1 462:1 469:1 470:1 484:1 490:1 491:1 496:1 497:1 500:1 501:1 512:1 515:1 516:1 519:1 520:1 523:1 524:1 527:1 528:1 539:1 542:1 544:1 545:1 548:1 549:1 550:1 551:1 554:1 555:1 567:1 570:1 573:1 574:1 581:1 582:1 596:1 598:1 602:1 603:1 608:1 609:1 624:1 626:1 631:1 632:1 635:1 636:1 646:1 647:1 648:1 649:1 652:1 653:1 654:1 660:1 661:1 662:1 663:1 674:1 677:1 678:1 679:1 701:1 702:1 705:1 707:1 732:1 760:1 785:1 
1 122:1 123:1 124:1 125:1 126:1 127:1 149:1 150:1 155:1 156:1 174:1 175:1 176:1 177:1 184:1 185:1 200:1 201:1 208:1 209:1 210:1 213:1 214:1 227:1 228:1 235:1 236:1 238:1 239:1 242:1 243:1 254:1 255:1 261:1 262:1 263:1 267:1 268:1 271:1 272:1 273:1 282:1 285:1 286:1 287:1 288:1 296:1 297:1 301:1 310:1 313:1 325:1 326:1 327:1 330:1 338:1 341:1 355:1 356:1 359:1 366:1 369:1 370:1 371:1 372:1 384:1 385:1 387:1 388:1 394:1 395:1 401:1 402:1 413:1 416:1 417:1 423:1 424:1 425:1 430:1 431:1 442:1 445:1 446:1 454:1 455:1 459:1 470:1 471:1 475:1 479:1 480:1 487:1 500:1 501:1 502:1 506:1 507:1 515:1 530:1 531:1 532:1 534:1 539:1 541:1 542:1 543:1 562:1 564:1 565:1 566:1 568:1 590:1 592:1 618:1 619:1 620:1 785:1 
1 8:1 23:1 26:1 36:1 51:1 52:1 53:1 54:1 64:1 92:1 119:1 120:1 146:1 147:1 173:1 174:1 194:1 195:1 196:1 200:1 201:1 222:1 228:1 250:1 256:1 277:1 284:1 306:1 312:1 334:1 340:1 362:1 363:1 364:1 368:1 395:1 422:1 423:1 449:1 450:1 785:1 
1 205:1 206:1 233:1 235:1 260:1 263:1 289:1 291:1 292:1 317:1 320:1 321:1 345:1 346:1 350:1 351:1 352:1 374:1 375:1 380:1 381:1 403:1 404:1 405:1 406:1 409:1 410:1 435:1 438:1 439:1 464:1 467:1 468:1 479:1 480:1 481:1 482:1 493:1 496:1 510:1 511:1 521:1 522:1 524:1 535:1 536:1 539:1 540:1 550:1 551:1 552:1 561:1 562:1 563:1 564:1 565:1 568:1 580:1 593:1 596:1 601:1 603:1 621:1 624:1 628:1 629:1 630:1 631:1 650:1 652:1 653:1 656:1 659:1 678:1 681:1 682:1 683:1 686:1 687:1 706:1 707:1 713:1 714:1 735:1 736:1 737:1 738:1 739:1 740:1 741:1 785:1 
1 327:1 328:1 329:1 351:1 352:1 353:1 354:1 355:1 357:1 358:1 359:1 369:1 370:1 371:1 372:1 373:1 374:1 375:1 376:1 377:1 378:1 387:1 388:1 389:1 398:1 417:1 424:1 425:1 426:1 427:1 428:1 429:1 430:1 431:1 432:1 433:1 434:1 435:1 436:1 437:1 438:1 439:1 440:1 441:1 442:1 443:1 444:1 445:1 785:1 
1 32:1 33:1 34:1 35:1 59:1 60:1 63:1 64:1 85:1 86:1 87:1 92:1 93:1 111:1 112:1 114:1 122:1 123:1 124:1 135:1 136:1 137:1 138:1 142:1 152:1 153:1 154:1 158:1 159:1 162:1 163:1 169:1 170:1 182:1 183:1 184:1 185:1 187:1 188:1 189:1 190:1 198:1 199:1 227:1 246:1 247:1 248:1 249:1 250:1 255:1 272:1 273:1 278:1 283:1 299:1 300:1 303:1 304:1 305:1 306:1 310:1 311:1 322:1 323:1 327:1 330:1 331:1 337:1 338:1 348:1 349:1 351:1 352:1 355:1 358:1 368:1 374:1 375:1 376:1 380:1 381:1 382:1 383:1 386:1 396:1 397:1 401:1 402:1 413:1 414:1 423:1 425:1 426:1 428:1 429:1 440:1 441:1 449:1 450:1 451:1 454:1 455:1 456:1 459:1 460:1 461:1 462:1 463:1 464:1 465:1 466:1 467:1 468:1 479:1 480:1 486:1 487:1 508:1 509:1 513:1 514:1 537:1 538:1 539:1 540:1 541:1 785:1 
1 253:1 254:1 255:1 256:1 257:1 260:1 261:1 262:1 263:1 264:1 265:1 266:1 267:1 268:1 269:1 270:1 271:1 272:1 273:1 274:1 277:1 278:1 279:1 280:1 284:1 286:1 287:1 303:1 304:1 314:1 332:1 337:1 338:1 342:1 344:1 345:1 346:1 347:1 348:1 349:1 350:1 351:1 352:1 353:1 354:1 355:1 356:1 357:1 358:1 359:1 360:1 369:1 372:1 397:1 400:1 425:1 428:1 453:1 455:1 456:1 481:1 482:1 483:1 785:1 
1 18:1 44:1 46:1 72:1 74:1 100:1 102:1 127:1 130:1 156:1 158:1 184:1 186:1 212:1 215:1 240:1 242:1 268:1 270:1 296:1 298:1 324:1 327:1 352:1 355:1 380:1 383:1 407:1 408:1 411:1 434:1 435:1 438:1 439:1 462:1 465:1 466:1 489:1 490:1 492:1 493:1 517:1 520:1 545:1 548:1 573:1 576:1 600:1 603:1 627:1 628:1 631:1 655:1 658:1 659:1 682:1 685:1 686:1 710:1 712:1 713:1 737:1 740:1 785:1 
1 190:1 217:1 218:1 245:1 247:1 272:1 273:1 275:1 300:1 303:1 328:1 331:1 356:1 359:1 384:1 387:1 412:1 415:1 439:1 440:1 443:1 454:1 458:1 459:1 460:1 461:1 462:1 463:1 464:1 465:1 466:1 467:1 471:1 482:1 484:1 485:1 498:1 499:1 510:1 525:1 526:1 538:1 539:1 540:1 544:1 545:1 546:1 547:1 548:1 549:1 550:1 551:1 552:1 553:1 568:1 569:1 570:1 571:1 785:1 
1 208:1 209:1 210:1 211:1 234:1 235:1 236:1 239:1 240:1 261:1 262:1 268:1 269:1 289:1 293:1 297:1 298:1 317:1 318:1 319:1 320:1 322:1 323:1 326:1 351:1 352:1 355:1 380:1 383:1 408:1 411:1 436:1 439:1 464:1 467:1 492:1 495:1 520:1 521:1 524:1 549:1 550:1 552:1 578:1 579:1 580:1 785:1 
1 90:1 91:1 92:1 93:1 118:1 121:1 122:1 146:1 147:1 150:1 151:1 175:1 176:1 180:1 181:1 182:1 204:1 205:1 211:1 212:1 233:1 234:1 235:1 236:1 237:1 240:1 241:1 265:1 266:1 269:1 270:1 294:1 295:1 298:1 299:1 323:1 324:1 327:1 352:1 355:1 380:1 383:1 409:1 412:1 437:1 440:1 441:1 465:1 466:1 469:1 470:1 494:1 495:1 498:1 523:1 526:1 552:1 555:1 580:1 583:1 608:1 610:1 636:1 638:1 664:1 666:1 692:1 693:1 694:1 785:1 
1 197:1 198:1 199:1 200:1 201:1 229:1 258:1 273:1 281:1 282:1 283:1 284:1 285:1 298:1 299:1 301:1 313:1 317:1 318:1 319:1 320:1 321:1 322:1 326:1 329:1 337:1 338:1 339:1 340:1 341:1 342:1 345:1 350:1 351:1 353:1 356:1 370:1 373:1 377:1 379:1 380:1 383:1 384:1 393:1 394:1 395:1 396:1 397:1 398:1 401:1 405:1 410:1 411:1 430:1 431:1 437:1 438:1 453:1 459:1 460:1 461:1 463:1 464:1 465:1 477:1 478:1 479:1 480:1 481:1 482:1 490:1 491:1 510:1 533:1 534:1 535:1 536:1 537:1 538:1 566:1 590:1 591:1 592:1 593:1 617:1 621:1 622:1 650:1 673:1 674:1 675:1 676:1 677:1 678:1 729:1 730:1 731:1 732:1 733:1 734:1 762:1 785:1 
1 157:1 158:1 159:1 160:1 161:1 183:1 184:1 185:1 211:1 216:1 217:1 218:1 238:1 241:1 242:1 243:1 265:1 266:1 268:1 269:1 291:1 292:1 296:1 319:1 322:1 323:1 345:1 346:1 349:1 350:1 373:1 376:1 377:1 400:1 401:1 403:1 404:1 428:1 431:1 455:1 458:1 483:1 486:1 511:1 514:1 515:1 540:1 544:1 545:1 546:1 547:1 548:1 568:1 569:1 574:1 597:1 598:1 599:1 600:1 601:1 602:1 785:1 
1 785:1 
1 23:1 51:1 80:1 81:1 82:1 83:1 84:1 107:1 135:1 136:1 163:1 180:1 181:1 182:1 183:1 184:1 186:1 187:1 188:1 189:1 190:1 191:1 207:1 208:1 213:1 219:1 220:1 235:1 247:1 263:1 266:1 267:1 268:1 269:1 270:1 271:1 272:1 275:1 276:1 290:1 293:1 294:1 303:1 318:1 321:1 331:1 343:1 345:1 346:1 349:1 359:1 372:1 373:1 376:1 377:1 387:1 388:1 400:1 403:1 404:1 415:1 427:1 428:1 430:1 431:1 443:1 455:1 458:1 471:1 482:1 486:1 499:1 510:1 513:1 527:1 538:1 541:1 555:1 567:1 569:1 583:1 584:1 595:1 597:1 611:1 622:1 624:1 625:1 639:1 667:1 695:1 785:1 
1 33:1 58:1 59:1 60:1 61:1 62:1 86:1 90:1 91:1 114:1 115:1 116:1 119:1 120:1 121:1 144:1 145:1 149:1 150:1 151:1 154:1 155:1 156:1 157:1 158:1 174:1 175:1 180:1 181:1 186:1 187:1 191:1 192:1 193:1 203:1 204:1 215:1 216:1 217:1 218:1 219:1 221:1 222:1 223:1 232:1 233:1 234:1 235:1 236:1 237:1 238:1 239:1 240:1 241:1 244:1 251:1 269:1 275:1 276:1 277:1 278:1 279:1 298:1 302:1 303:1 326:1 329:1 330:1 354:1 357:1 382:1 385:1 410:1 413:1 438:1 441:1 466:1 469:1 493:1 494:1 497:1 520:1 521:1 524:1 547:1 548:1 552:1 574:1 575:1 578:1 579:1 602:1 606:1 630:1 633:1 658:1 661:1 686:1 687:1 689:1 715:1 717:1 785:1 
1 95:1 96:1 122:1 124:1 125:1 150:1 153:1 154:1 178:1 179:1 182:1 183:1 207:1 208:1 211:1 212:1 236:1 237:1 240:1 241:1 265:1 266:1 269:1 270:1 294:1 295:1 298:1 299:1 323:1 324:1 327:1 352:1 355:1 380:1 384:1 407:1 408:1 411:1 412:1 435:1 438:1 439:1 463:1 465:1 466:1 491:1 493:1 519:1 521:1 547:1 549:1 575:1 577:1 603:1 605:1 631:1 634:1 659:1 660:1 662:1 688:1 689:1 690:1 785:1 
1 228:1 229:1 230:1 231:1 232:1 233:1 234:1 235:1 236:1 237:1 256:1 266:1 267:1 284:1 285:1 286:1 295:1 296:1 315:1 316:1 317:1 318:1 319:1 320:1 325:1 326:1 327:1 328:1 348:1 349:1 356:1 357:1 377:1 378:1 379:1 385:1 386:1 408:1 409:1 410:1 411:1 414:1 415:1 439:1 440:1 443:1 444:1 468:1 469:1 472:1 497:1 498:1 501:1 526:1 528:1 554:1 556:1 785:1 
1 2:1 18:1 21:1 30:1 46:1 49:1 57:1 58:1 74:1 75:1 78:1 86:1 104:1 105:1 106:1 113:1 114:1 281:1 282:1 283:1 311:1 312:1 340:1 341:1 365:1 369:1 370:1 394:1 395:1 398:1 399:1 423:1 424:1 427:1 428:1 443:1 444:1 445:1 452:1 453:1 456:1 457:1 471:1 473:1 481:1 482:1 485:1 486:1 487:1 488:1 489:1 490:1 491:1 492:1 498:1 499:1 500:1 501:1 510:1 511:1 520:1 521:1 522:1 539:1 540:1 541:1 550:1 551:1 570:1 571:1 572:1 573:1 574:1 575:1 576:1 579:1 604:1 605:1 607:1 633:1 635:1 661:1 662:1 663:1 785:1 
1 785:1 
1 103:1 128:1 129:1 131:1 155:1 156:1 159:1 182:1 183:1 186:1 187:1 209:1 210:1 213:1 214:1 236:1 237:1 240:1 241:1 263:1 264:1 267:1 268:1 290:1 291:1 294:1 295:1 318:1 321:1 322:1 346:1 349:1 365:1 366:1 367:1 374:1 377:1 395:1 402:1 405:1 423:1 430:1 433:1 449:1 450:1 451:1 458:1 461:1 486:1 487:1 490:1 515:1 518:1 519:1 543:1 544:1 547:1 548:1 572:1 573:1 576:1 577:1 601:1 602:1 605:1 630:1 633:1 658:1 659:1 660:1 661:1 785:1 
0.56568364936854532 216:1 244:1 271:1 272:1 273:1 299:1 301:1 326:1 329:1 339:1 340:1 341:1 342:1 348:1 349:1 350:1 351:1 352:1 353:1 357:1 367:1 370:1 375:1 376:1 384:1 385:1 395:1 398:1 403:1 407:1 410:1 411:1 412:1 423:1 424:1 425:1 426:1 431:1 433:1 434:1 436:1 437:1 459:1 461:1 486:1 489:1 512:1 513:1 514:1 516:1 517:1 544:1 569:1 570:1 571:1 572:1 606:1 634:1 635:1 636:1 662:1 664:1 690:1 691:1 692:1 785:1 
1 302:1 303:1 304:1 305:1 328:1 329:1 333:1 340:1 341:1 342:1 355:1 356:1 360:1 361:1 367:1 371:1 372:1 373:1 374:1 375:1 376:1 377:1 378:1 379:1 380:1 381:1 382:1 383:1 386:1 387:1 388:1 396:1 413:1 414:1 424:1 425:1 440:1 441:1 453:1 454:1 455:1 456:1 457:1 458:1 459:1 460:1 461:1 462:1 463:1 464:1 465:1 466:1 467:1 468:1 687:1 688:1 689:1 715:1 717:1 743:1 745:1 771:1 773:1 785:1 
0.93480105196099228 143:1 159:1 169:1 170:1 172:1 173:1 174:1 175:1 176:1 177:1 180:1 182:1 183:1 184:1 185:1 186:1 187:1 188:1 189:1 190:1 191:1 192:1 193:1 194:1 195:1 196:1 206:1 207:1 209:1 234:1 237:1 261:1 262:1 264:1 265:1 282:1 288:1 289:1 292:1 309:1 311:1 315:1 316:1 319:1 320:1 339:1 343:1 346:1 366:1 367:1 368:1 372:1 374:1 375:1 393:1 394:1 400:1 403:1 404:1 428:1 429:1 432:1 433:1 439:1 441:1 457:1 458:1 461:1 462:1 466:1 469:1 486:1 487:1 490:1 491:1 493:1 496:1 497:1 515:1 516:1 519:1 520:1 523:1 524:1 544:1 545:1 551:1 573:1 574:1 577:1 578:1 579:1 602:1 603:1 604:1 605:1 785:1 
1 785:1 
1 63:1 64:1 65:1 66:1 91:1 94:1 95:1 119:1 120:1 123:1 124:1 148:1 149:1 152:1 153:1 177:1 178:1 181:1 182:1 206:1 207:1 210:1 211:1 235:1 236:1 239:1 264:1 267:1 278:1 292:1 295:1 305:1 307:1 308:1 320:1 323:1 333:1 335:1 336:1 348:1 351:1 361:1 363:1 376:1 379:1 389:1 404:1 407:1 408:1 417:1 432:1 433:1 436:1 437:1 445:1 446:1 461:1 462:1 465:1 466:1 474:1 490:1 491:1 494:1 495:1 502:1 503:1 504:1 519:1 520:1 524:1 532:1 548:1 549:1 550:1 552:1 553:1 578:1 581:1 607:1 609:1 635:1 637:1 663:1 666:1 691:1 692:1 693:1 720:1 785:1 
1 5:1 9:1 12:1 16:1 33:1 36:1 37:1 38:1 39:1 40:1 41:1 42:1 43:1 44:1 62:1 63:1 64:1 71:1 90:1 105:1 106:1 107:1 108:1 132:1 133:1 159:1 160:1 164:1 165:1 186:1 187:1 191:1 192:1 214:1 218:1 219:1 241:1 245:1 246:1 269:1 272:1 273:1 297:1 300:1 324:1 325:1 328:1 351:1 352:1 356:1 378:1 379:1 383:1 405:1 406:1 410:1 411:1 432:1 433:1 437:1 438:1 459:1 460:1 464:1 465:1 486:1 487:1 491:1 492:1 513:1 514:1 518:1 519:1 540:1 541:1 544:1 545:1 546:1 567:1 568:1 571:1 572:1 594:1 595:1 598:1 599:1 621:1 622:1 626:1 652:1 653:1 654:1 677:1 678:1 679:1 680:1 785:1 
1 43:1 64:1 65:1 71:1 72:1 94:1 95:1 96:1 97:1 100:1 125:1 128:1 153:1 156:1 181:1 182:1 184:1 185:1 186:1 187:1 188:1 189:1 209:1 210:1 211:1 213:1 237:1 240:1 264:1 268:1 292:1 296:1 297:1 320:1 326:1 327:1 328:1 349:1 356:1 377:1 381:1 384:1 405:1 409:1 412:1 433:1 435:1 436:1 440:1 461:1 462:1 468:1 489:1 496:1 516:1 523:1 524:1 544:1 549:1 550:1 551:1 572:1 577:1 600:1 605:1 629:1 633:1 657:1 661:1 684:1 688:1 689:1 713:1 715:1 716:1 741:1 742:1 743:1 785:1 
1 213:1 214:1 215:1 216:1 240:1 241:1 244:1 267:1 268:1 271:1 272:1 295:1 298:1 299:1 323:1 325:1 326:1 351:1 353:1 379:1 381:1 407:1 409:1 435:1 437:1 462:1 463:1 465:1 486:1 487:1 488:1 489:1 490:1 493:1 513:1 514:1 520:1 521:1 541:1 545:1 546:1 547:1 548:1 569:1 571:1 572:1 598:1 599:1 619:1 620:1 621:1 647:1 649:1 675:1 676:1 677:1 785:1 
0.88570216212745045 231:1 255:1 256:1 257:1 258:1 260:1 261:1 262:1 284:1 290:1 291:1 312:1 313:1 314:1 319:1 320:1 343:1 344:1 345:1 348:1 349:1 350:1 351:1 352:1 353:1 354:1 355:1 373:1 374:1 383:1 384:1 402:1 403:1 412:1 413:1 431:1 432:1 433:1 434:1 435:1 436:1 437:1 438:1 441:1 442:1 443:1 466:1 467:1 472:1 473:1 495:1 496:1 524:1 525:1 526:1 527:1 528:1 529:1 589:1 590:1 591:1 592:1 593:1 594:1 595:1 611:1 612:1 624:1 625:1 626:1 627:1 628:1 629:1 630:1 631:1 632:1 633:1 634:1 635:1 636:1 637:1 638:1 641:1 642:1 643:1 644:1 785:1 
1 4:1 32:1 33:1 61:1 62:1 90:1 91:1 116:1 119:1 120:1 145:1 148:1 149:1 174:1 177:1 178:1 203:1 206:1 207:1 232:1 236:1 237:1 261:1 265:1 266:1 290:1 291:1 294:1 295:1 319:1 320:1 323:1 324:1 348:1 349:1 352:1 353:1 377:1 378:1 381:1 382:1 391:1 406:1 407:1 410:1 411:1 419:1 435:1 436:1 439:1 446:1 464:1 467:1 474:1 475:1 493:1 495:1 503:1 504:1 521:1 523:1 531:1 532:1 550:1 551:1 559:1 576:1 577:1 587:1 588:1 615:1 616:1 785:1 
0.14787455788402767 101:1 102:1 103:1 129:1 132:1 157:1 159:1 185:1 187:1 213:1 215:1 241:1 243:1 269:1 271:1 297:1 299:1 325:1 328:1 353:1 356:1 380:1 381:1 383:1 407:1 408:1 411:1 434:1 435:1 438:1 439:1 461:1 462:1 465:1 466:1 488:1 489:1 492:1 493:1 515:1 516:1 519:1 542:1 543:1 546:1 570:1 573:1 598:1 600:1 601:1 626:1 628:1 654:1 655:1 656:1 785:1 
1 157:1 158:1 159:1 184:1 185:1 187:1 211:1 212:1 215:1 239:1 242:1 267:1 270:1 295:1 298:1 323:1 326:1 351:1 354:1 379:1 382:1 407:1 410:1 435:1 438:1 463:1 466:1 487:1 488:1 492:1 494:1 514:1 515:1 517:1 518:1 520:1 522:1 546:1 550:1 570:1 571:1 572:1 578:1 600:1 601:1 605:1 606:1 629:1 630:1 631:1 632:1 633:1 722:1 723:1 724:1 725:1 750:1 753:1 778:1 780:1 785:1 
1 175:1 176:1 177:1 178:1 179:1 180:1 181:1 182:1 183:1 184:1 201:1 202:1 203:1 212:1 213:1 228:1 229:1 241:1 242:1 256:1 259:1 260:1 261:1 262:1 263:1 264:1 265:1 266:1 267:1 270:1 284:1 285:1 286:1 295:1 296:1 299:1 324:1 327:1 352:1 355:1 380:1 383:1 384:1 408:1 409:1 412:1 413:1 437:1 438:1 441:1 442:1 466:1 467:1 470:1 471:1 495:1 496:1 499:1 500:1 524:1 525:1 528:1 529:1 553:1 554:1 557:1 582:1 583:1 584:1 585:1 785:1 
1 206:1 207:1 233:1 235:1 236:1 261:1 264:1 265:1 266:1 289:1 290:1 295:1 296:1 297:1 318:1 319:1 320:1 325:1 348:1 349:1 350:1 351:1 354:1 379:1 382:1 407:1 410:1 436:1 439:1 464:1 467:1 468:1 492:1 493:1 496:1 521:1 522:1 524:1 550:1 551:1 552:1 579:1 785:1 
1 155:1 179:1 180:1 181:1 182:1 184:1 185:1 186:1 206:1 207:1 214:1 215:1 233:1 234:1 238:1 239:1 243:1 261:1 264:1 265:1 267:1 268:1 271:1 289:1 291:1 292:1 296:1 299:1 317:1 324:1 327:1 352:1 355:1 380:1 383:1 408:1 411:1 436:1 439:1 464:1 467:1 492:1 495:1 519:1 523:1 548:1 551:1 576:1 579:1 604:1 605:1 607:1 634:1 635:1 785:1 
1 18:1 21:1 47:1 49:1 50:1 51:1 75:1 80:1 81:1 82:1 103:1 104:1 110:1 111:1 132:1 133:1 134:1 135:1 136:1 139:1 140:1 164:1 165:1 193:1 194:1 215:1 216:1 217:1 218:1 222:1 223:1 224:1 241:1 242:1 247:1 248:1 268:1 269:1 275:1 295:1 296:1 299:1 300:1 301:1 302:1 303:1 304:1 305:1 322:1 323:1 326:1 327:1 349:1 350:1 353:1 354:1 376:1 377:1 380:1 381:1 403:1 404:1 407:1 408:1 430:1 431:1 434:1 435:1 457:1 458:1 461:1 462:1 480:1 481:1 482:1 483:1 484:1 485:1 488:1 489:1 508:1 515:1 516:1 535:1 536:1 537:1 540:1 541:1 542:1 543:1 566:1 567:1 649:1 676:1 677:1 704:1 706:1 732:1 734:1 759:1 762:1 785:1 
1 17:1 45:1 73:1 74:1 102:1 125:1 126:1 127:1 128:1 129:1 130:1 151:1 152:1 153:1 158:1 159:1 178:1 179:1 187:1 205:1 206:1 209:1 210:1 211:1 212:1 216:1 233:1 236:1 237:1 240:1 244:1 260:1 261:1 263:1 268:1 272:1 289:1 296:1 300:1 325:1 328:1 352:1 356:1 380:1 383:1 408:1 411:1 436:1 437:1 439:1 465:1 467:1 493:1 495:1 519:1 520:1 523:1 551:1 574:1 575:1 576:1 579:1 604:1 607:1 632:1 633:1 635:1 660:1 663:1 689:1 691:1 717:1 719:1 745:1 746:1 747:1 785:1 
1 175:1 176:1 177:1 203:1 205:1 231:1 233:1 234:1 259:1 262:1 287:1 290:1 315:1 318:1 319:1 343:1 344:1 347:1 348:1 372:1 373:1 376:1 401:1 405:1 429:1 430:1 433:1 458:1 461:1 486:1 490:1 515:1 518:1 519:1 520:1 521:1 522:1 523:1 524:1 525:1 526:1 527:1 528:1 529:1 530:1 543:1 552:1 553:1 558:1 571:1 572:1 585:1 586:1 600:1 601:1 602:1 603:1 604:1 605:1 606:1 607:1 608:1 609:1 785:1 
1 3:1 5:1 21:1 24:1 29:1 30:1 31:1 32:1 33:1 34:1 49:1 52:1 53:1 58:1 62:1 77:1 78:1 81:1 82:1 86:1 90:1 106:1 107:1 110:1 114:1 115:1 117:1 118:1 135:1 137:1 138:1 143:1 144:1 145:1 163:1 164:1 192:1 221:1 288:1 289:1 290:1 291:1 292:1 315:1 316:1 320:1 321:1 342:1 343:1 349:1 350:1 369:1 370:1 373:1 374:1 375:1 378:1 379:1 382:1 383:1 384:1 385:1 386:1 387:1 396:1 397:1 400:1 401:1 403:1 404:1 407:1 408:1 409:1 416:1 417:1 418:1 419:1 423:1 424:1 427:1 428:1 432:1 433:1 452:1 454:1 455:1 461:1 462:1 463:1 465:1 466:1 467:1 468:1 469:1 470:1 471:1 472:1 473:1 480:1 481:1 492:1 785:1 
1 197:1 198:1 199:1 200:1 201:1 202:1 203:1 204:1 205:1 206:1 207:1 208:1 209:1 210:1 211:1 215:1 216:1 217:1 218:1 219:1 220:1 224:1 231:1 240:1 241:1 250:1 251:1 269:1 270:1 278:1 287:1 288:1 289:1 290:1 291:1 292:1 293:1 294:1 295:1 298:1 299:1 300:1 301:1 302:1 306:1 307:1 308:1 323:1 324:1 330:1 331:1 337:1 338:1 352:1 353:1 354:1 359:1 360:1 366:1 383:1 384:1 385:1 388:1 394:1 413:1 414:1 416:1 421:1 422:1 442:1 444:1 469:1 472:1 496:1 499:1 500:1 524:1 526:1 527:1 552:1 553:1 554:1 785:1 
1 186:1 187:1 188:1 189:1 213:1 214:1 217:1 240:1 245:1 267:1 270:1 271:1 272:1 288:1 289:1 290:1 291:1 292:1 293:1 294:1 297:1 298:1 314:1 315:1 316:1 324:1 325:1 341:1 342:1 346:1 347:1 350:1 351:1 352:1 370:1 372:1 373:1 376:1 377:1 398:1 399:1 400:1 785:1 
1 151:1 152:1 153:1 154:1 155:1 156:1 157:1 158:1 159:1 160:1 161:1 162:1 177:1 178:1 179:1 190:1 191:1 205:1 219:1 232:1 233:1 236:1 237:1 238:1 243:1 244:1 245:1 246:1 247:1 259:1 260:1 263:1 264:1 267:1 268:1 269:1 270:1 286:1 287:1 290:1 291:1 314:1 317:1 318:1 341:1 344:1 345:1 369:1 372:1 398:1 400:1 401:1 426:1 429:1 430:1 454:1 455:1 458:1 459:1 464:1 483:1 484:1 487:1 491:1 492:1 493:1 494:1 512:1 513:1 516:1 520:1 522:1 523:1 524:1 541:1 542:1 543:1 544:1 548:1 550:1 551:1 572:1 577:1 580:1 598:1 600:1 605:1 608:1 626:1 627:1 628:1 633:1 634:1 635:1 636:1 663:1 785:1 
1 785:1 
1 66:1 68:1 93:1 94:1 95:1 96:1 120:1 121:1 124:1 125:1 148:1 153:1 176:1 178:1 181:1 182:1 207:1 210:1 211:1 212:1 213:1 231:1 232:1 236:1 242:1 243:1 244:1 255:1 256:1 257:1 258:1 259:1 260:1 261:1 262:1 264:1 272:1 273:1 281:1 282:1 283:1 291:1 297:1 301:1 302:1 309:1 310:1 319:1 320:1 321:1 323:1 324:1 326:1 327:1 331:1 332:1 333:1 338:1 349:1 350:1 355:1 356:1 361:1 362:1 363:1 366:1 378:1 379:1 380:1 385:1 386:1 391:1 392:1 394:1 409:1 410:1 411:1 415:1 416:1 417:1 422:1 439:1 440:1 445:1 446:1 447:1 450:1 461:1 462:1 463:1 468:1 469:1 470:1 476:1 478:1 479:1 489:1 492:1 493:1 494:1 498:1 499:1 500:1 501:1 507:1 508:1 509:1 510:1 517:1 523:1 529:1 530:1 537:1 545:1 551:1 552:1 565:1 573:1 580:1 581:1 582:1 583:1 584:1 585:1 586:1 587:1 592:1 601:1 619:1 629:1 648:1 650:1 651:1 652:1 656:1 657:1 677:1 680:1 681:1 682:1 683:1 684:1 785:1 
1 103:1 104:1 105:1 106:1 130:1 131:1 157:1 158:1 161:1 162:1 184:1 185:1 188:1 189:1 212:1 215:1 216:1 240:1 242:1 243:1 267:1 270:1 295:1 298:1 324:1 326:1 352:1 354:1 380:1 382:1 407:1 410:1 433:1 434:1 437:1 438:1 460:1 461:1 464:1 465:1 488:1 491:1 492:1 514:1 515:1 518:1 519:1 541:1 542:1 546:1 568:1 569:1 572:1 573:1 595:1 596:1 599:1 600:1 623:1 626:1 627:1 641:1 642:1 643:1 644:1 651:1 653:1 654:1 669:1 671:1 679:1 680:1 697:1 725:1 753:1 781:1 785:1 
0.94062054315490284 22:1 24:1 50:1 52:1 77:1 78:1 79:1 82:1 83:1 84:1 106:1 110:1 121:1 123:1 124:1 125:1 126:1 129:1 130:1 131:1 132:1 134:1 135:1 136:1 138:1 148:1 149:1 151:1 154:1 158:1 160:1 162:1 168:1 176:1 179:1 182:1 186:1 187:1 188:1 190:1 191:1 194:1 195:1 205:1 207:1 219:1 222:1 233:1 236:1 237:1 247:1 250:1 261:1 262:1 265:1 275:1 277:1 290:1 291:1 293:1 294:1 302:1 305:1 319:1 322:1 330:1 333:1 347:1 350:1 358:1 361:1 376:1 379:1 386:1 389:1 404:1 407:1 408:1 414:1 417:1 432:1 433:1 436:1 442:1 445:1 461:1 462:1 464:1 465:1 474:1 490:1 493:1 502:1 503:1 518:1 519:1 521:1 531:1 532:1 547:1 550:1 575:1 578:1 579:1 603:1 604:1 607:1 608:1 632:1 633:1 636:1 661:1 662:1 664:1 690:1 691:1 785:1 
1 201:1 202:1 203:1 204:1 205:1 226:1 227:1 228:1 234:1 235:1 236:1 237:1 255:1 265:1 266:1 282:1 283:1 284:1 285:1 286:1 287:1 288:1 289:1 290:1 294:1 295:1 304:1 305:1 306:1 319:1 320:1 323:1 324:1 331:1 332:1 334:1 348:1 349:1 352:1 353:1 359:1 362:1 377:1 378:1 381:1 386:1 387:1 390:1 406:1 407:1 409:1 410:1 411:1 412:1 413:1 414:1 418:1 435:1 445:1 446:1 463:1 464:1 474:1 493:1 494:1 495:1 496:1 497:1 498:1 499:1 500:1 503:1 528:1 529:1 530:1 785:1 
1 99:1 125:1 126:1 128:1 129:1 153:1 157:1 158:1 180:1 186:1 208:1 214:1 236:1 242:1 264:1 270:1 292:1 295:1 298:1 320:1 323:1 348:1 351:1 376:1 379:1 404:1 407:1 432:1 435:1 461:1 463:1 489:1 491:1 516:1 519:1 543:1 544:1 547:1 570:1 571:1 574:1 575:1 597:1 598:1 601:1 602:1 625:1 628:1 629:1 653:1 654:1 655:1 656:1 785:1 
1 46:1 47:1 48:1 72:1 73:1 77:1 78:1 99:1 100:1 106:1 107:1 127:1 131:1 132:1 135:1 155:1 158:1 160:1 161:1 164:1 183:1 185:1 186:1 189:1 192:1 213:1 217:1 220:1 246:1 248:1 249:1 250:1 274:1 278:1 291:1 292:1 293:1 294:1 295:1 302:1 303:1 306:1 319:1 323:1 324:1 332:1 333:1 334:1 346:1 352:1 353:1 374:1 381:1 382:1 402:1 410:1 411:1 430:1 438:1 458:1 459:1 466:1 467:1 487:1 488:1 493:1 494:1 516:1 517:1 518:1 519:1 520:1 785:1 
1 6:1 33:1 34:1 59:1 60:1 61:1 85:1 86:1 428:1 429:1 430:1 454:1 455:1 459:1 460:1 481:1 482:1 488:1 489:1 508:1 509:1 512:1 513:1 514:1 517:1 518:1 533:1 534:1 535:1 536:1 539:1 540:1 542:1 543:1 546:1 547:1 548:1 549:1 566:1 567:1 571:1 572:1 578:1 579:1 580:1 592:1 593:1 594:1 596:1 600:1 601:1 608:1 609:1 624:1 625:1 630:1 631:1 632:1 633:1 637:1 638:1 653:1 654:1 661:1 662:1 663:1 667:1 668:1 669:1 670:1 671:1 691:1 692:1 699:1 720:1 721:1 722:1 723:1 724:1 725:1 726:1 727:1 785:1 
0.85115600015759729 203:1 204:1 205:1 231:1 234:1 235:1 236:1 264:1 265:1 286:1 287:1 288:1 289:1 293:1 294:1 318:1 322:1 323:1 347:1 348:1 351:1 352:1 376:1 377:1 380:1 381:1 382:1 405:1 406:1 411:1 412:1 434:1 435:1 440:1 441:1 464:1 465:1 466:1 469:1 470:1 494:1 495:1 498:1 499:1 523:1 524:1 527:1 552:1 553:1 690:1 691:1 692:1 693:1 694:1 717:1 718:1 722:1 723:1 745:1 751:1 772:1 779:1 785:1 
1 161:1 162:1 163:1 164:1 165:1 168:1 185:1 186:1 187:1 188:1 194:1 195:1 212:1 213:1 222:1 236:1 237:1 238:1 239:1 244:1 245:1 246:1 247:1 248:1 249:1 250:1 263:1 264:1 270:1 271:1 272:1 290:1 291:1 297:1 298:1 318:1 321:1 322:1 323:1 324:1 346:1 349:1 374:1 377:1 401:1 404:1 428:1 429:1 432:1 456:1 459:1 483:1 486:1 487:1 511:1 513:1 514:1 539:1 541:1 569:1 785:1 
0.87555979557064001 19:1 22:1 47:1 50:1 51:1 75:1 76:1 79:1 80:1 104:1 105:1 108:1 127:1 128:1 129:1 133:1 134:1 136:1 155:1 157:1 162:1 165:1 183:1 185:1 186:1 190:1 193:1 210:1 211:1 214:1 218:1 221:1 237:1 238:1 241:1 242:1 246:1 249:1 264:1 265:1 268:1 269:1 274:1 277:1 291:1 292:1 295:1 296:1 302:1 305:1 318:1 319:1 322:1 323:1 330:1 333:1 346:1 349:1 350:1 358:1 360:1 374:1 377:1 386:1 388:1 401:1 405:1 413:1 415:1 416:1 430:1 432:1 433:1 442:1 443:1 458:1 461:1 462:1 470:1 486:1 487:1 490:1 491:1 515:1 516:1 519:1 520:1 544:1 545:1 548:1 549:1 574:1 578:1 603:1 604:1 606:1 607:1 632:1 635:1 661:1 663:1 690:1 785:1 
1 5:1 33:1 61:1 88:1 89:1 113:1 115:1 116:1 142:1 194:1 218:1 219:1 220:1 221:1 223:1 224:1 244:1 245:1 246:1 251:1 256:1 257:1 258:1 259:1 260:1 271:1 272:1 276:1 277:1 278:1 279:1 280:1 283:1 284:1 288:1 296:1 297:1 298:1 302:1 303:1 311:1 316:1 322:1 323:1 329:1 330:1 339:1 344:1 349:1 350:1 353:1 354:1 355:1 356:1 357:1 367:1 372:1 377:1 380:1 381:1 395:1 401:1 405:1 408:1 423:1 429:1 430:1 433:1 436:1 451:1 458:1 459:1 460:1 461:1 464:1 479:1 484:1 491:1 492:1 508:1 512:1 513:1 514:1 518:1 519:1 523:1 524:1 525:1 526:1 527:1 536:1 537:1 539:1 540:1 543:1 544:1 545:1 546:1 551:1 555:1 556:1 565:1 566:1 567:1 577:1 578:1 579:1 584:1 604:1 605:1 613:1 614:1 632:1 642:1 643:1 659:1 671:1 687:1 699:1 715:1 727:1 743:1 755:1 771:1 783:1 785:1 
1 119:1 121:1 147:1 148:1 149:1 175:1 177:1 203:1 205:1 230:1 231:1 233:1 258:1 261:1 286:1 289:1 314:1 317:1 342:1 345:1 370:1 371:1 373:1 374:1 399:1 402:1 403:1 427:1 428:1 431:1 432:1 456:1 457:1 460:1 461:1 485:1 486:1 489:1 490:1 514:1 515:1 518:1 519:1 543:1 544:1 547:1 548:1 549:1 550:1 551:1 552:1 553:1 554:1 555:1 572:1 573:1 583:1 601:1 602:1 609:1 610:1 611:1 630:1 631:1 632:1 633:1 634:1 635:1 636:1 785:1 
0.37765701308402155 217:1 242:1 243:1 244:1 246:1 247:1 270:1 289:1 290:1 297:1 298:1 301:1 302:1 303:1 314:1 315:1 316:1 319:1 320:1 321:1 322:1 323:1 324:1 328:1 329:1 341:1 342:1 354:1 355:1 356:1 369:1 374:1 375:1 381:1 382:1 397:1 400:1 401:1 404:1 405:1 406:1 407:1 408:1 425:1 428:1 453:1 456:1 481:1 484:1 509:1 510:1 512:1 538:1 539:1 540:1 785:1 
1 236:1 261:1 262:1 263:1 264:1 288:1 289:1 292:1 316:1 319:1 343:1 344:1 347:1 371:1 375:1 399:1 402:1 403:1 427:1 428:1 431:1 432:1 456:1 457:1 460:1 461:1 462:1 463:1 464:1 465:1 466:1 467:1 485:1 486:1 495:1 496:1 497:1 498:1 499:1 514:1 515:1 516:1 517:1 518:1 519:1 548:1 549:1 550:1 551:1 552:1 553:1 554:1 681:1 684:1 685:1 686:1 709:1 710:1 711:1 714:1 715:1 739:1 740:1 743:1 768:1 771:1 785:1 
1 8:1 9:1 10:1 11:1 29:1 30:1 31:1 32:1 33:1 34:1 35:1 36:1 39:1 67:1 68:1 85:1 86:1 87:1 88:1 89:1 90:1 91:1 92:1 93:1 94:1 135:1 136:1 137:1 138:1 163:1 166:1 169:1 170:1 171:1 172:1 182:1 183:1 184:1 191:1 193:1 194:1 200:1 210:1 212:1 214:1 215:1 216:1 217:1 220:1 227:1 228:1 238:1 240:1 241:1 245:1 253:1 254:1 255:1 266:1 269:1 272:1 273:1 294:1 297:1 298:1 323:1 326:1 327:1 352:1 355:1 356:1 372:1 373:1 374:1 380:1 381:1 384:1 400:1 403:1 404:1 405:1 409:1 412:1 419:1 428:1 431:1 433:1 434:1 438:1 440:1 447:1 448:1 456:1 459:1 462:1 466:1 468:1 474:1 486:1 487:1 488:1 490:1 493:1 496:1 502:1 503:1 504:1 514:1 518:1 521:1 524:1 542:1 543:1 547:1 548:1 549:1 552:1 571:1 572:1 579:1 580:1 600:1 601:1 606:1 607:1 630:1 631:1 632:1 633:1 634:1 680:1 708:1 709:1 710:1 711:1 712:1 735:1 738:1 747:1 748:1 749:1 763:1 766:1 775:1 777:1 785:1 
1 6:1 12:1 13:1 16:1 34:1 35:1 36:1 37:1 38:1 39:1 40:1 41:1 44:1 45:1 69:1 70:1 73:1 74:1 98:1 99:1 102:1 103:1 127:1 128:1 131:1 132:1 156:1 157:1 160:1 161:1 185:1 186:1 189:1 190:1 214:1 215:1 218:1 246:1 259:1 260:1 261:1 262:1 263:1 264:1 265:1 266:1 267:1 268:1 269:1 270:1 271:1 272:1 273:1 274:1 286:1 287:1 302:1 303:1 314:1 331:1 341:1 343:1 344:1 345:1 346:1 347:1 348:1 349:1 350:1 359:1 369:1 387:1 398:1 413:1 414:1 415:1 425:1 431:1 432:1 433:1 434:1 435:1 436:1 437:1 438:1 439:1 440:1 453:1 454:1 458:1 459:1 482:1 483:1 485:1 486:1 511:1 512:1 513:1 785:1 
1 139:1 140:1 143:1 144:1 145:1 146:1 147:1 166:1 167:1 171:1 174:1 193:1 194:1 197:1 198:1 199:1 202:1 203:1 204:1 221:1 226:1 230:1 249:1 258:1 277:1 286:1 305:1 314:1 333:1 341:1 342:1 344:1 345:1 346:1 347:1 361:1 369:1 372:1 375:1 389:1 396:1 397:1 399:1 400:1 403:1 417:1 423:1 427:1 430:1 445:1 450:1 451:1 454:1 455:1 459:1 473:1 478:1 481:1 482:1 487:1 502:1 505:1 506:1 509:1 514:1 530:1 537:1 543:1 557:1 565:1 571:1 585:1 593:1 599:1 613:1 621:1 627:1 641:1 649:1 655:1 656:1 669:1 677:1 684:1 685:1 686:1 689:1 690:1 693:1 697:1 698:1 705:1 719:1 720:1 721:1 725:1 728:1 733:1 742:1 747:1 749:1 752:1 753:1 755:1 762:1 770:1 775:1 777:1 780:1 783:1 785:1 
1 13:1 41:1 54:1 55:1 69:1 81:1 82:1 96:1 109:1 124:1 125:1 132:1 134:1 137:1 153:1 159:1 160:1 162:1 165:1 181:1 182:1 183:1 184:1 185:1 186:1 187:1 190:1 193:1 214:1 218:1 219:1 221:1 222:1 223:1 224:1 247:1 275:1 276:1 277:1 279:1 306:1 307:1 308:1 785:1 
1 8:1 10:1 36:1 38:1 64:1 65:1 66:1 263:1 264:1 265:1 266:1 290:1 291:1 294:1 317:1 318:1 321:1 322:1 344:1 345:1 348:1 349:1 356:1 357:1 371:1 372:1 375:1 384:1 386:1 399:1 402:1 411:1 427:1 430:1 431:1 432:1 433:1 434:1 435:1 436:1 437:1 438:1 441:1 455:1 458:1 468:1 469:1 483:1 484:1 495:1 496:1 512:1 513:1 514:1 515:1 516:1 517:1 518:1 519:1 520:1 521:1 522:1 523:1 785:1 
0.80509486986341949 200:1 228:1 255:1 256:1 258:1 283:1 286:1 287:1 311:1 315:1 316:1 317:1 318:1 319:1 320:1 321:1 322:1 323:1 324:1 325:1 326:1 327:1 328:1 340:1 341:1 356:1 357:1 369:1 370:1 374:1 385:1 386:1 399:1 400:1 403:1 404:1 405:1 406:1 407:1 408:1 409:1 410:1 411:1 414:1 415:1 428:1 429:1 431:1 439:1 440:1 443:1 444:1 457:1 459:1 468:1 469:1 472:1 485:1 486:1 497:1 498:1 501:1 502:1 526:1 527:1 531:1 532:1 555:1 556:1 558:1 584:1 585:1 785:1 
1 92:1 93:1 94:1 95:1 120:1 123:1 124:1 148:1 149:1 153:1 178:1 179:1 182:1 207:1 208:1 211:1 212:1 213:1 214:1 215:1 216:1 217:1 218:1 236:1 237:1 246:1 247:1 265:1 266:1 275:1 276:1 294:1 295:1 296:1 297:1 298:1 299:1 300:1 301:1 304:1 305:1 329:1 330:1 334:1 335:1 336:1 358:1 359:1 387:1 388:1 389:1 418:1 419:1 420:1 561:1 562:1 563:1 564:1 565:1 566:1 567:1 568:1 569:1 570:1 571:1 572:1 573:1 574:1 575:1 576:1 577:1 578:1 579:1 580:1 581:1 582:1 583:1 584:1 585:1 586:1 587:1 588:1 785:1 
1 225:1 226:1 227:1 228:1 229:1 240:1 241:1 242:1 243:1 244:1 257:1 258:1 266:1 267:1 268:1 272:1 273:1 286:1 293:1 294:1 301:1 302:1 314:1 316:1 317:1 318:1 319:1 320:1 321:1 324:1 325:1 326:1 327:1 330:1 342:1 351:1 352:1 355:1 358:1 365:1 366:1 370:1 372:1 373:1 378:1 379:1 383:1 386:1 394:1 398:1 402:1 403:1 404:1 405:1 406:1 411:1 414:1 422:1 426:1 439:1 442:1 450:1 453:1 454:1 467:1 470:1 478:1 479:1 480:1 481:1 495:1 497:1 523:1 525:1 617:1 618:1 619:1 620:1 648:1 649:1 650:1 676:1 701:1 702:1 703:1 704:1 705:1 731:1 760:1 785:1 
1 153:1 154:1 180:1 182:1 208:1 210:1 211:1 236:1 239:1 265:1 267:1 293:1 295:1 321:1 323:1 349:1 351:1 377:1 380:1 405:1 406:1 408:1 409:1 434:1 437:1 463:1 466:1 490:1 491:1 493:1 517:1 518:1 521:1 545:1 548:1 549:1 573:1 575:1 576:1 601:1 602:1 603:1 785:1 
1 19:1 20:1 46:1 47:1 49:1 50:1 74:1 78:1 102:1 103:1 104:1 105:1 106:1 179:1 180:1 181:1 182:1 206:1 207:1 210:1 233:1 234:1 237:1 238:1 259:1 260:1 261:1 264:1 286:1 287:1 291:1 292:1 314:1 318:1 319:1 341:1 345:1 369:1 372:1 397:1 400:1 425:1 428:1 429:1 431:1 432:1 433:1 434:1 435:1 436:1 454:1 458:1 465:1 466:1 467:1 468:1 469:1 482:1 483:1 497:1 498:1 511:1 512:1 513:1 514:1 515:1 516:1 517:1 518:1 519:1 520:1 521:1 522:1 526:1 527:1 530:1 531:1 550:1 551:1 555:1 558:1 580:1 583:1 584:1 585:1 586:1 587:1 608:1 609:1 610:1 611:1 680:1 681:1 682:1 683:1 707:1 712:1 734:1 736:1 739:1 762:1 764:1 785:1 
1 205:1 206:1 207:1 208:1 232:1 233:1 236:1 260:1 263:1 287:1 290:1 291:1 315:1 318:1 343:1 346:1 371:1 374:1 399:1 402:1 427:1 430:1 436:1 437:1 438:1 455:1 458:1 459:1 460:1 461:1 462:1 463:1 464:1 466:1 467:1 468:1 483:1 484:1 496:1 497:1 512:1 513:1 514:1 520:1 521:1 525:1 526:1 543:1 544:1 545:1 546:1 547:1 550:1 551:1 554:1 555:1 579:1 580:1 583:1 584:1 608:1 609:1 612:1 637:1 638:1 666:1 785:1 
0.41510563873401457 16:1 17:1 23:1 43:1 44:1 50:1 51:1 70:1 71:1 76:1 77:1 78:1 97:1 98:1 101:1 102:1 103:1 124:1 125:1 128:1 129:1 151:1 152:1 155:1 177:1 178:1 179:1 182:1 184:1 205:1 209:1 212:1 232:1 236:1 240:1 241:1 261:1 263:1 266:1 267:1 269:1 290:1 294:1 297:1 298:1 322:1 326:1 327:1 350:1 355:1 378:1 383:1 406:1 410:1 411:1 434:1 437:1 438:1 462:1 465:1 490:1 493:1 517:1 518:1 521:1 542:1 543:1 544:1 545:1 548:1 549:1 570:1 575:1 576:1 598:1 599:1 600:1 601:1 602:1 603:1 785:1 
1 785:1 
1 101:1 102:1 103:1 128:1 129:1 132:1 155:1 156:1 159:1 182:1 183:1 186:1 187:1 209:1 210:1 213:1 214:1 237:1 240:1 241:1 265:1 268:1 293:1 296:1 321:1 324:1 349:1 352:1 377:1 380:1 405:1 408:1 433:1 436:1 460:1 464:1 487:1 488:1 491:1 514:1 515:1 518:1 519:1 542:1 546:1 550:1 551:1 570:1 573:1 576:1 577:1 579:1 587:1 588:1 597:1 601:1 604:1 607:1 614:1 615:1 625:1 628:1 632:1 635:1 641:1 642:1 654:1 655:1 656:1 659:1 660:1 663:1 664:1 665:1 666:1 667:1 668:1 669:1 682:1 686:1 687:1 699:1 700:1 710:1 714:1 726:1 727:1 738:1 741:1 746:1 747:1 748:1 749:1 750:1 751:1 752:1 753:1 754:1 769:1 774:1 785:1 
1 298:1 299:1 300:1 322:1 323:1 324:1 325:1 329:1 330:1 349:1 350:1 358:1 359:1 360:1 369:1 370:1 371:1 372:1 373:1 374:1 375:1 376:1 377:1 397:1 410:1 411:1 413:1 416:1 425:1 436:1 437:1 438:1 440:1 442:1 443:1 453:1 454:1 455:1 456:1 457:1 458:1 459:1 460:1 461:1 462:1 463:1 785:1 
1 176:1 177:1 178:1 179:1 180:1 181:1 182:1 201:1 202:1 203:1 210:1 211:1 229:1 239:1 240:1 257:1 258:1 259:1 260:1 261:1 262:1 263:1 264:1 265:1 268:1 269:1 293:1 294:1 297:1 298:1 322:1 323:1 326:1 351:1 352:1 354:1 380:1 383:1 408:1 411:1 437:1 439:1 440:1 465:1 468:1 469:1 493:1 494:1 497:1 498:1 522:1 523:1 526:1 527:1 551:1 552:1 555:1 556:1 580:1 581:1 594:1 595:1 596:1 597:1 598:1 610:1 622:1 625:1 638:1 639:1 650:1 651:1 652:1 653:1 654:1 785:1 
1 19:1 24:1 46:1 47:1 53:1 73:1 74:1 78:1 81:1 82:1 98:1 99:1 100:1 101:1 104:1 105:1 107:1 111:1 124:1 125:1 131:1 132:1 136:1 138:1 139:1 140:1 151:1 152:1 158:1 159:1 165:1 166:1 177:1 178:1 183:1 184:1 185:1 200:1 201:1 202:1 203:1 204:1 205:1 208:1 209:1 210:1 228:1 235:1 236:1 256:1 257:1 258:1 261:1 262:1 263:1 275:1 276:1 277:1 278:1 287:1 288:1 303:1 306:1 330:1 331:1 332:1 333:1 334:1 470:1 471:1 472:1 473:1 498:1 501:1 526:1 529:1 554:1 555:1 556:1 557:1 785:1 
1 362:1 363:1 364:1 379:1 380:1 381:1 389:1 390:1 406:1 409:1 410:1 416:1 417:1 434:1 435:1 438:1 439:1 440:1 441:1 442:1 443:1 444:1 447:1 448:1 463:1 464:1 474:1 475:1 492:1 493:1 501:1 502:1 521:1 522:1 523:1 524:1 525:1 526:1 527:1 528:1 529:1 785:1 
1 13:1 19:1 41:1 42:1 48:1 70:1 71:1 75:1 99:1 100:1 102:1 103:1 128:1 129:1 130:1 269:1 270:1 271:1 272:1 273:1 274:1 296:1 302:1 303:1 324:1 327:1 328:1 351:1 354:1 355:1 357:1 358:1 359:1 360:1 379:1 382:1 401:1 407:1 410:1 426:1 427:1 428:1 430:1 431:1 432:1 433:1 434:1 435:1 438:1 454:1 465:1 466:1 481:1 482:1 483:1 484:1 485:1 486:1 492:1 493:1 515:1 516:1 517:1 518:1 519:1 520:1 581:1 582:1 583:1 584:1 585:1 586:1 587:1 608:1 609:1 615:1 616:1 636:1 664:1 665:1 693:1 694:1 722:1 723:1 751:1 779:1 785:1 
1 6:1 7:1 10:1 34:1 35:1 36:1 37:1 38:1 61:1 62:1 66:1 67:1 68:1 88:1 89:1 97:1 98:1 114:1 115:1 116:1 126:1 142:1 154:1 170:1 182:1 183:1 198:1 212:1 213:1 214:1 215:1 226:1 227:1 243:1 244:1 245:1 246:1 247:1 248:1 249:1 255:1 256:1 257:1 258:1 259:1 260:1 277:1 288:1 296:1 297:1 304:1 317:1 326:1 330:1 331:1 332:1 345:1 346:1 347:1 348:1 349:1 350:1 351:1 352:1 353:1 354:1 358:1 383:1 386:1 411:1 413:1 414:1 439:1 442:1 467:1 470:1 495:1 498:1 523:1 526:1 551:1 554:1 579:1 582:1 607:1 610:1 611:1 635:1 636:1 639:1 640:1 664:1 665:1 668:1 669:1 693:1 694:1 697:1 698:1 722:1 723:1 726:1 727:1 751:1 752:1 755:1 780:1 783:1 785:1 
1 192:1 218:1 219:1 220:1 245:1 246:1 248:1 272:1 273:1 276:1 299:1 300:1 303:1 304:1 326:1 327:1 330:1 331:1 352:1 353:1 354:1 357:1 358:1 380:1 384:1 385:1 407:1 408:1 410:1 411:1 434:1 438:1 460:1 461:1 464:1 465:1 466:1 481:1 482:1 483:1 484:1 485:1 486:1 487:1 488:1 492:1 509:1 519:1 537:1 538:1 539:1 540:1 541:1 542:1 543:1 544:1 545:1 546:1 547:1 785:1 
0.70080753257243333 185:1 186:1 187:1 188:1 189:1 190:1 211:1 212:1 218:1 238:1 239:1 246:1 247:1 266:1 269:1 270:1 271:1 272:1 273:1 274:1 294:1 297:1 322:1 325:1 350:1 353:1 378:1 381:1 406:1 409:1 431:1 432:1 433:1 436:1 437:1 457:1 458:1 464:1 484:1 485:1 490:1 491:1 492:1 511:1 512:1 515:1 516:1 517:1 539:1 542:1 543:1 567:1 569:1 596:1 597:1 620:1 647:1 648:1 675:1 677:1 702:1 703:1 705:1 731:1 732:1 733:1 785:1 
1 8:1 35:1 36:1 43:1 64:1 65:1 66:1 67:1 68:1 69:1 70:1 72:1 73:1 74:1 75:1 76:1 77:1 78:1 86:1 87:1 88:1 101:1 106:1 107:1 113:1 125:1 126:1 129:1 135:1 136:1 143:1 144:1 152:1 153:1 156:1 164:1 165:1 166:1 167:1 168:1 169:1 170:1 171:1 180:1 183:1 184:1 207:1 210:1 211:1 235:1 238:1 254:1 255:1 256:1 257:1 263:1 266:1 281:1 282:1 285:1 286:1 291:1 294:1 314:1 319:1 322:1 342:1 347:1 350:1 370:1 375:1 378:1 398:1 403:1 406:1 426:1 431:1 434:1 453:1 454:1 459:1 462:1 463:1 480:1 481:1 487:1 488:1 491:1 492:1 507:1 508:1 516:1 517:1 520:1 533:1 534:1 535:1 545:1 546:1 548:1 549:1 562:1 574:1 577:1 578:1 590:1 602:1 605:1 617:1 618:1 630:1 633:1 646:1 647:1 659:1 661:1 662:1 675:1 687:1 688:1 689:1 702:1 703:1 717:1 729:1 730:1 745:1 757:1 758:1 773:1 785:1 
1 203:1 204:1 205:1 231:1 233:1 234:1 259:1 263:1 264:1 265:1 266:1 267:1 268:1 269:1 270:1 271:1 272:1 288:1 289:1 300:1 301:1 302:1 317:1 318:1 330:1 346:1 347:1 348:1 349:1 350:1 351:1 352:1 353:1 354:1 355:1 358:1 384:1 386:1 412:1 414:1 440:1 442:1 468:1 470:1 496:1 498:1 524:1 526:1 552:1 554:1 580:1 581:1 582:1 608:1 785:1 
1 237:1 238:1 239:1 240:1 265:1 269:1 270:1 271:1 272:1 293:1 300:1 301:1 320:1 321:1 324:1 329:1 345:1 346:1 347:1 348:1 352:1 357:1 372:1 373:1 384:1 385:1 399:1 400:1 411:1 412:1 427:1 430:1 431:1 432:1 433:1 434:1 435:1 436:1 437:1 438:1 456:1 458:1 785:1 
1 177:1 178:1 179:1 180:1 181:1 182:1 183:1 184:1 185:1 205:1 214:1 215:1 233:1 234:1 235:1 243:1 264:1 265:1 266:1 267:1 268:1 272:1 297:1 300:1 325:1 328:1 353:1 356:1 381:1 384:1 409:1 412:1 437:1 440:1 465:1 468:1 493:1 496:1 520:1 521:1 523:1 524:1 548:1 551:1 576:1 578:1 579:1 604:1 605:1 606:1 785:1 
1 1:1 2:1 10:1 30:1 37:1 38:1 57:1 58:1 59:1 64:1 65:1 69:1 70:1 88:1 89:1 90:1 91:1 96:1 97:1 99:1 124:1 127:1 152:1 155:1 180:1 183:1 207:1 210:1 235:1 238:1 263:1 266:1 291:1 294:1 295:1 320:1 323:1 324:1 348:1 349:1 352:1 353:1 377:1 378:1 381:1 406:1 409:1 435:1 438:1 463:1 466:1 491:1 494:1 518:1 521:1 546:1 549:1 574:1 577:1 603:1 605:1 630:1 633:1 658:1 661:1 685:1 686:1 689:1 713:1 716:1 717:1 741:1 742:1 743:1 744:1 785:1 
1 236:1 237:1 238:1 239:1 240:1 241:1 242:1 243:1 263:1 264:1 271:1 272:1 290:1 291:1 300:1 301:1 317:1 318:1 321:1 322:1 323:1 324:1 325:1 326:1 329:1 330:1 344:1 345:1 348:1 349:1 354:1 355:1 358:1 359:1 360:1 361:1 362:1 371:1 372:1 375:1 376:1 383:1 384:1 389:1 398:1 399:1 402:1 403:1 412:1 413:1 414:1 415:1 416:1 417:1 425:1 426:1 429:1 430:1 452:1 453:1 456:1 457:1 480:1 483:1 484:1 508:1 510:1 511:1 537:1 785:1 
1 184:1 185:1 186:1 187:1 188:1 189:1 190:1 191:1 209:1 210:1 211:1 236:1 237:1 246:1 247:1 263:1 264:1 267:1 268:1 269:1 270:1 271:1 272:1 273:1 274:1 290:1 291:1 294:1 295:1 317:1 318:1 321:1 322:1 344:1 345:1 348:1 349:1 371:1 372:1 375:1 376:1 399:1 402:1 403:1 413:1 415:1 426:1 427:1 429:1 430:1 441:1 443:1 454:1 457:1 468:1 471:1 482:1 484:1 485:1 497:1 499:1 509:1 512:1 525:1 527:1 528:1 537:1 539:1 540:1 553:1 556:1 557:1 567:1 582:1 585:1 586:1 610:1 611:1 614:1 639:1 640:1 642:1 668:1 671:1 696:1 699:1 724:1 725:1 727:1 728:1 753:1 781:1 785:1 
0.77170473135179685 256:1 257:1 258:1 259:1 260:1 261:1 262:1 263:1 283:1 284:1 291:1 292:1 311:1 320:1 321:1 339:1 340:1 341:1 342:1 343:1 344:1 345:1 346:1 349:1 350:1 374:1 375:1 378:1 379:1 403:1 404:1 407:1 408:1 432:1 433:1 436:1 437:1 438:1 439:1 440:1 441:1 442:1 443:1 461:1 462:1 472:1 473:1 474:1 475:1 490:1 491:1 519:1 520:1 521:1 522:1 523:1 524:1 525:1 526:1 527:1 528:1 529:1 530:1 531:1 532:1 575:1 576:1 577:1 578:1 603:1 620:1 621:1 622:1 623:1 624:1 625:1 626:1 627:1 628:1 629:1 630:1 634:1 646:1 647:1 659:1 661:1 662:1 688:1 689:1 701:1 702:1 703:1 704:1 705:1 706:1 707:1 708:1 709:1 710:1 711:1 712:1 713:1 714:1 717:1 718:1 719:1 720:1 721:1 722:1 723:1 724:1 725:1 726:1 727:1 728:1 742:1 754:1 755:1 770:1 782:1 785:1 
1 309:1 310:1 311:1 339:1 340:1 344:1 345:1 346:1 347:1 348:1 349:1 350:1 351:1 352:1 353:1 368:1 370:1 371:1 382:1 383:1 384:1 385:1 386:1 387:1 388:1 393:1 394:1 395:1 416:1 424:1 426:1 427:1 428:1 429:1 430:1 431:1 432:1 433:1 434:1 435:1 436:1 437:1 438:1 439:1 440:1 441:1 442:1 443:1 785:1 
1 11:1 39:1 40:1 41:1 42:1 43:1 44:1 45:1 67:1 68:1 74:1 94:1 95:1 122:1 149:1 177:1 205:1 233:1 261:1 289:1 316:1 345:1 373:1 503:1 504:1 530:1 531:1 557:1 558:1 586:1 614:1 640:1 641:1 642:1 643:1 644:1 667:1 668:1 694:1 695:1 720:1 721:1 722:1 747:1 748:1 775:1 785:1 
1 785:1 
1 19:1 22:1 47:1 49:1 75:1 77:1 103:1 105:1 131:1 133:1 159:1 161:1 187:1 189:1 214:1 217:1 235:1 236:1 237:1 238:1 239:1 240:1 241:1 242:1 245:1 262:1 263:1 272:1 289:1 290:1 299:1 300:1 317:1 320:1 321:1 322:1 323:1 324:1 325:1 326:1 345:1 348:1 373:1 376:1 401:1 404:1 429:1 432:1 457:1 460:1 485:1 488:1 513:1 516:1 541:1 544:1 569:1 572:1 597:1 600:1 625:1 628:1 653:1 656:1 681:1 684:1 709:1 710:1 712:1 738:1 785:1 
1 3:1 30:1 31:1 57:1 58:1 105:1 106:1 107:1 132:1 133:1 135:1 160:1 163:1 187:1 190:1 214:1 217:1 241:1 242:1 244:1 245:1 269:1 272:1 297:1 300:1 325:1 328:1 353:1 356:1 381:1 384:1 409:1 412:1 436:1 437:1 439:1 440:1 463:1 464:1 467:1 490:1 491:1 494:1 515:1 516:1 517:1 518:1 521:1 522:1 541:1 542:1 548:1 549:1 568:1 569:1 574:1 575:1 576:1 594:1 595:1 599:1 600:1 601:1 622:1 625:1 626:1 627:1 651:1 652:1 653:1 680:1 785:1 
1 345:1 372:1 373:1 401:1 429:1 456:1 484:1 485:1 512:1 537:1 538:1 541:1 564:1 568:1 569:1 591:1 594:1 595:1 597:1 598:1 619:1 620:1 621:1 626:1 655:1 678:1 680:1 683:1 705:1 706:1 707:1 708:1 711:1 732:1 733:1 736:1 739:1 761:1 764:1 767:1 785:1 
1 140:1 166:1 167:1 193:1 194:1 215:1 216:1 217:1 218:1 219:1 222:1 242:1 243:1 247:1 248:1 250:1 251:1 270:1 276:1 279:1 280:1 298:1 301:1 304:1 326:1 328:1 332:1 353:1 356:1 360:1 381:1 384:1 386:1 387:1 388:1 408:1 409:1 412:1 416:1 435:1 436:1 439:1 440:1 459:1 461:1 462:1 463:1 466:1 467:1 483:1 484:1 485:1 486:1 488:1 493:1 494:1 510:1 511:1 520:1 521:1 536:1 537:1 539:1 540:1 541:1 542:1 543:1 544:1 545:1 546:1 547:1 548:1 622:1 623:1 624:1 649:1 650:1 653:1 654:1 677:1 682:1 705:1 706:1 709:1 734:1 737:1 762:1 765:1 785:1 
1 297:1 298:1 299:1 300:1 301:1 302:1 303:1 304:1 324:1 325:1 333:1 334:1 351:1 352:1 362:1 363:1 373:1 374:1 378:1 379:1 382:1 383:1 384:1 385:1 386:1 387:1 388:1 391:1 395:1 396:1 397:1 398:1 399:1 400:1 403:1 404:1 405:1 409:1 410:1 416:1 417:1 418:1 422:1 423:1 436:1 437:1 451:1 454:1 455:1 456:1 457:1 458:1 459:1 460:1 461:1 462:1 463:1 464:1 479:1 480:1 481:1 785:1 
1 181:1 182:1 183:1 184:1 185:1 186:1 207:1 208:1 214:1 235:1 241:1 242:1 263:1 265:1 266:1 267:1 268:1 290:1 293:1 318:1 321:1 346:1 349:1 375:1 377:1 403:1 405:1 431:1 433:1 459:1 461:1 487:1 490:1 515:1 518:1 543:1 546:1 571:1 572:1 573:1 574:1 785:1 
1 9:1 38:1 39:1 40:1 65:1 68:1 69:1 94:1 97:1 122:1 125:1 151:1 153:1 179:1 182:1 207:1 210:1 211:1 235:1 236:1 239:1 264:1 267:1 268:1 293:1 296:1 321:1 324:1 325:1 349:1 353:1 381:1 382:1 410:1 411:1 439:1 467:1 472:1 473:1 474:1 486:1 495:1 500:1 502:1 515:1 523:1 528:1 530:1 544:1 545:1 551:1 556:1 557:1 558:1 573:1 574:1 575:1 576:1 579:1 596:1 598:1 599:1 604:1 607:1 623:1 624:1 626:1 632:1 635:1 652:1 653:1 654:1 660:1 663:1 689:1 691:1 717:1 719:1 745:1 747:1 776:1 785:1 
1 26:1 53:1 81:1 109:1 137:1 165:1 193:1 213:1 214:1 221:1 239:1 240:1 241:1 242:1 248:1 249:1 266:1 267:1 275:1 276:1 279:1 280:1 294:1 297:1 298:1 302:1 303:1 306:1 307:1 322:1 324:1 329:1 330:1 333:1 334:1 349:1 352:1 357:1 360:1 361:1 377:1 380:1 385:1 386:1 387:1 404:1 405:1 408:1 431:1 432:1 436:1 459:1 464:1 486:1 492:1 515:1 519:1 520:1 543:1 544:1 545:1 546:1 547:1 785:1 
1 297:1 298:1 299:1 300:1 301:1 311:1 312:1 313:1 314:1 315:1 316:1 317:1 323:1 324:1 330:1 331:1 332:1 339:1 345:1 346:1 350:1 351:1 367:1 368:1 369:1 370:1 371:1 374:1 375:1 377:1 378:1 381:1 382:1 383:1 384:1 385:1 386:1 387:1 388:1 399:1 400:1 403:1 404:1 405:1 408:1 409:1 428:1 429:1 435:1 436:1 457:1 458:1 459:1 462:1 463:1 487:1 488:1 489:1 555:1 556:1 584:1 585:1 621:1 648:1 649:1 650:1 651:1 652:1 675:1 676:1 680:1 681:1 702:1 703:1 709:1 710:1 730:1 733:1 734:1 735:1 738:1 758:1 761:1 764:1 766:1 785:1 
1 264:1 265:1 266:1 267:1 268:1 269:1 270:1 271:1 291:1 292:1 300:1 301:1 318:1 319:1 329:1 330:1 344:1 345:1 346:1 349:1 350:1 351:1 352:1 353:1 354:1 358:1 359:1 362:1 363:1 364:1 369:1 370:1 371:1 376:1 377:1 382:1 383:1 384:1 387:1 388:1 396:1 397:1 403:1 404:1 412:1 413:1 418:1 419:1 420:1 423:1 424:1 427:1 428:1 429:1 430:1 442:1 443:1 444:1 445:1 449:1 450:1 451:1 454:1 455:1 478:1 481:1 506:1 507:1 508:1 524:1 525:1 526:1 551:1 552:1 554:1 580:1 581:1 582:1 785:1 
1 141:1 143:1 144:1 170:1 173:1 174:1 175:1 176:1 177:1 178:1 179:1 180:1 190:1 191:1 208:1 209:1 220:1 221:1 226:1 227:1 228:1 229:1 230:1 231:1 232:1 237:1 238:1 249:1 250:1 260:1 261:1 262:1 263:1 266:1 267:1 268:1 269:1 270:1 271:1 272:1 273:1 277:1 291:1 292:1 301:1 302:1 305:1 320:1 321:1 322:1 330:1 331:1 350:1 351:1 352:1 353:1 354:1 355:1 356:1 359:1 380:1 384:1 385:1 387:1 413:1 416:1 441:1 444:1 469:1 471:1 497:1 499:1 524:1 527:1 552:1 554:1 555:1 580:1 582:1 609:1 610:1 785:1 
1 295:1 296:1 297:1 298:1 299:1 300:1 323:1 328:1 343:1 344:1 345:1 351:1 356:1 357:1 371:1 373:1 374:1 379:1 382:1 385:1 399:1 410:1 413:1 428:1 430:1 431:1 432:1 433:1 434:1 435:1 436:1 437:1 440:1 441:1 455:1 456:1 468:1 485:1 494:1 495:1 496:1 505:1 506:1 513:1 514:1 515:1 516:1 517:1 518:1 519:1 520:1 521:1 534:1 561:1 562:1 729:1 730:1 758:1 785:1 
1 146:1 147:1 148:1 174:1 177:1 178:1 179:1 180:1 181:1 182:1 183:1 184:1 201:1 202:1 212:1 213:1 230:1 231:1 232:1 241:1 242:1 261:1 262:1 263:1 264:1 265:1 266:1 267:1 270:1 271:1 295:1 296:1 299:1 300:1 324:1 325:1 328:1 353:1 354:1 356:1 382:1 385:1 410:1 413:1 438:1 440:1 466:1 468:1 494:1 497:1 522:1 525:1 526:1 550:1 551:1 554:1 555:1 579:1 583:1 608:1 609:1 610:1 785:1 
1 104:1 127:1 128:1 129:1 130:1 131:1 133:1 154:1 155:1 162:1 182:1 210:1 237:1 265:1 293:1 321:1 349:1 377:1 404:1 433:1 785:1 
1 9:1 11:1 15:1 24:1 25:1 37:1 39:1 40:1 43:1 44:1 45:1 46:1 51:1 52:1 53:1 65:1 68:1 74:1 75:1 78:1 79:1 93:1 96:1 97:1 103:1 104:1 106:1 120:1 121:1 126:1 127:1 128:1 129:1 132:1 133:1 147:1 148:1 158:1 159:1 161:1 162:1 163:1 166:1 167:1 174:1 175:1 183:1 184:1 185:1 186:1 192:1 194:1 195:1 201:1 202:1 210:1 211:1 221:1 222:1 228:1 229:1 237:1 238:1 243:1 244:1 245:1 255:1 256:1 262:1 263:1 264:1 265:1 270:1 271:1 273:1 274:1 282:1 283:1 287:1 288:1 289:1 298:1 302:1 309:1 310:1 314:1 315:1 326:1 330:1 342:1 354:1 357:1 358:1 370:1 382:1 383:1 384:1 385:1 398:1 399:1 400:1 410:1 412:1 428:1 429:1 430:1 440:1 458:1 466:1 468:1 487:1 488:1 494:1 496:1 513:1 514:1 516:1 522:1 524:1 539:1 540:1 541:1 542:1 543:1 544:1 550:1 552:1 567:1 576:1 577:1 580:1 591:1 592:1 593:1 594:1 595:1 604:1 607:1 608:1 617:1 618:1 632:1 633:1 634:1 635:1 785:1 
1 255:1 256:1 257:1 258:1 259:1 260:1 283:1 288:1 289:1 311:1 312:1 313:1 314:1 317:1 318:1 319:1 331:1 332:1 333:1 334:1 342:1 343:1 347:1 348:1 349:1 358:1 359:1 372:1 373:1 378:1 379:1 386:1 389:1 401:1 402:1 407:1 408:1 409:1 413:1 414:1 417:1 430:1 431:1 432:1 433:1 437:1 438:1 439:1 440:1 441:1 444:1 462:1 463:1 471:1 491:1 492:1 498:1 520:1 521:1 522:1 523:1 524:1 525:1 526:1 681:1 682:1 683:1 684:1 701:1 702:1 703:1 704:1 705:1 706:1 707:1 708:1 713:1 714:1 715:1 716:1 717:1 718:1 719:1 720:1 721:1 722:1 723:1 724:1 725:1 726:1 727:1 728:1 785:1 
1 12:1 13:1 41:1 68:1 69:1 70:1 95:1 98:1 124:1 126:1 152:1 154:1 180:1 182:1 207:1 208:1 210:1 235:1 238:1 263:1 266:1 291:1 294:1 320:1 322:1 348:1 350:1 351:1 376:1 379:1 380:1 404:1 405:1 408:1 409:1 433:1 434:1 437:1 438:1 441:1 442:1 443:1 444:1 462:1 463:1 466:1 469:1 472:1 491:1 494:1 497:1 498:1 499:1 500:1 519:1 522:1 547:1 550:1 558:1 560:1 575:1 578:1 585:1 587:1 603:1 605:1 613:1 615:1 631:1 633:1 640:1 641:1 643:1 644:1 659:1 661:1 669:1 670:1 671:1 687:1 689:1 715:1 716:1 717:1 743:1 745:1 785:1 
1 183:1 184:1 185:1 186:1 187:1 212:1 215:1 216:1 244:1 245:1 268:1 269:1 270:1 273:1 274:1 298:1 299:1 302:1 303:1 328:1 332:1 357:1 358:1 360:1 361:1 386:1 389:1 414:1 417:1 442:1 445:1 471:1 473:1 499:1 501:1 527:1 529:1 554:1 557:1 581:1 582:1 584:1 585:1 608:1 609:1 612:1 635:1 636:1 639:1 663:1 666:1 691:1 694:1 719:1 722:1 747:1 750:1 775:1 778:1 785:1 
1 21:1 26:1 49:1 50:1 54:1 78:1 79:1 80:1 81:1 82:1 312:1 313:1 314:1 315:1 316:1 317:1 318:1 319:1 320:1 321:1 322:1 323:1 324:1 325:1 326:1 327:1 328:1 329:1 341:1 350:1 358:1 359:1 360:1 367:1 368:1 369:1 370:1 371:1 388:1 389:1 400:1 401:1 402:1 403:1 404:1 405:1 406:1 407:1 408:1 409:1 410:1 411:1 412:1 413:1 414:1 417:1 443:1 445:1 472:1 473:1 785:1 
1 204:1 205:1 206:1 207:1 208:1 209:1 210:1 211:1 212:1 213:1 231:1 232:1 241:1 242:1 258:1 259:1 263:1 264:1 265:1 266:1 270:1 271:1 284:1 285:1 286:1 289:1 290:1 295:1 296:1 299:1 300:1 312:1 316:1 317:1 324:1 325:1 328:1 329:1 340:1 341:1 342:1 343:1 344:1 353:1 354:1 357:1 382:1 383:1 385:1 411:1 414:1 439:1 442:1 466:1 469:1 495:1 497:1 523:1 525:1 551:1 553:1 579:1 580:1 581:1 785:1 
1 291:1 292:1 293:1 294:1 295:1 296:1 297:1 299:1 300:1 301:1 302:1 303:1 304:1 305:1 317:1 318:1 326:1 333:1 334:1 344:1 345:1 371:1 372:1 375:1 376:1 377:1 378:1 379:1 380:1 381:1 382:1 383:1 384:1 385:1 386:1 387:1 388:1 389:1 396:1 397:1 398:1 399:1 402:1 403:1 423:1 429:1 430:1 452:1 453:1 454:1 455:1 456:1 457:1 785:1 
1 245:1 247:1 273:1 274:1 275:1 300:1 301:1 303:1 328:1 331:1 355:1 356:1 358:1 359:1 382:1 383:1 386:1 409:1 410:1 413:1 414:1 436:1 437:1 440:1 441:1 455:1 463:1 464:1 467:1 468:1 482:1 484:1 490:1 491:1 494:1 495:1 510:1 513:1 514:1 515:1 516:1 517:1 518:1 521:1 522:1 538:1 539:1 548:1 549:1 567:1 568:1 569:1 574:1 575:1 576:1 598:1 599:1 600:1 601:1 785:1 
1 20:1 48:1 76:1 99:1 104:1 126:1 127:1 132:1 143:1 144:1 145:1 148:1 149:1 150:1 151:1 152:1 153:1 154:1 156:1 157:1 160:1 169:1 170:1 171:1 173:1 174:1 176:1 185:1 186:1 189:1 197:1 198:1 202:1 203:1 204:1 214:1 215:1 218:1 219:1 220:1 221:1 222:1 226:1 229:1 243:1 244:1 250:1 251:1 254:1 257:1 272:1 279:1 282:1 301:1 307:1 308:1 309:1 329:1 337:1 338:1 357:1 366:1 367:1 385:1 395:1 396:1 405:1 406:1 407:1 408:1 409:1 410:1 413:1 424:1 432:1 433:1 438:1 441:1 452:1 459:1 460:1 466:1 469:1 470:1 480:1 486:1 487:1 495:1 498:1 499:1 500:1 508:1 514:1 523:1 524:1 528:1 529:1 537:1 541:1 552:1 553:1 554:1 557:1 565:1 569:1 582:1 583:1 586:1 593:1 597:1 611:1 612:1 615:1 621:1 622:1 624:1 625:1 640:1 641:1 642:1 644:1 650:1 651:1 652:1 669:1 670:1 698:1 699:1 700:1 785:1 
1 93:1 121:1 148:1 151:1 177:1 179:1 180:1 205:1 208:1 209:1 233:1 234:1 237:1 238:1 262:1 263:1 266:1 267:1 292:1 296:1 321:1 324:1 325:1 350:1 353:1 378:1 381:1 406:1 410:1 435:1 438:1 439:1 463:1 464:1 467:1 468:1 492:1 493:1 496:1 521:1 524:1 549:1 552:1 577:1 580:1 605:1 608:1 633:1 636:1 661:1 662:1 664:1 690:1 691:1 719:1 785:1 
1 158:1 160:1 185:1 186:1 188:1 212:1 216:1 239:1 242:1 243:1 266:1 267:1 269:1 270:1 294:1 297:1 322:1 325:1 350:1 353:1 377:1 380:1 404:1 407:1 408:1 430:1 431:1 434:1 435:1 457:1 458:1 461:1 462:1 485:1 488:1 489:1 513:1 516:1 541:1 544:1 569:1 572:1 573:1 598:1 601:1 626:1 627:1 628:1 629:1 785:1 
1 12:1 27:1 28:1 39:1 41:1 55:1 65:1 69:1 70:1 82:1 83:1 84:1 95:1 98:1 99:1 100:1 101:1 102:1 103:1 109:1 110:1 121:1 124:1 126:1 131:1 136:1 137:1 150:1 153:1 159:1 160:1 163:1 164:1 178:1 181:1 188:1 189:1 190:1 191:1 206:1 209:1 235:1 238:1 263:1 264:1 266:1 267:1 292:1 295:1 296:1 321:1 324:1 325:1 349:1 350:1 353:1 378:1 381:1 406:1 409:1 434:1 437:1 462:1 465:1 490:1 493:1 518:1 521:1 546:1 549:1 574:1 577:1 602:1 605:1 630:1 631:1 634:1 635:1 659:1 663:1 664:1 687:1 688:1 692:1 716:1 717:1 718:1 719:1 720:1 785:1 
1 111:1 112:1 139:1 167:1 195:1 202:1 204:1 223:1 230:1 232:1 251:1 257:1 258:1 260:1 279:1 285:1 288:1 307:1 313:1 316:1 335:1 341:1 344:1 345:1 363:1 370:1 373:1 374:1 375:1 376:1 391:1 398:1 399:1 405:1 406:1 419:1 420:1 427:1 428:1 434:1 435:1 457:1 458:1 459:1 460:1 463:1 464:1 465:1 466:1 467:1 468:1 469:1 470:1 488:1 489:1 498:1 499:1 517:1 518:1 527:1 546:1 547:1 548:1 549:1 550:1 551:1 552:1 553:1 555:1 582:1 785:1 
1 3:1 6:1 18:1 31:1 34:1 44:1 46:1 59:1 62:1 71:1 74:1 87:1 90:1 98:1 102:1 115:1 118:1 125:1 129:1 130:1 143:1 146:1 153:1 156:1 157:1 171:1 174:1 180:1 181:1 184:1 199:1 202:1 208:1 211:1 227:1 230:1 236:1 239:1 255:1 258:1 264:1 267:1 283:1 286:1 292:1 295:1 311:1 314:1 319:1 320:1 323:1 339:1 342:1 348:1 351:1 367:1 370:1 376:1 380:1 395:1 398:1 404:1 408:1 423:1 424:1 426:1 427:1 432:1 436:1 452:1 455:1 456:1 460:1 463:1 480:1 481:1 484:1 485:1 488:1 491:1 509:1 510:1 513:1 516:1 519:1 538:1 539:1 540:1 541:1 544:1 547:1 572:1 575:1 600:1 603:1 628:1 631:1 656:1 659:1 685:1 687:1 713:1 715:1 741:1 742:1 785:1 
1 117:1 118:1 119:1 145:1 147:1 148:1 173:1 176:1 177:1 201:1 202:1 205:1 206:1 230:1 231:1 234:1 235:1 259:1 260:1 263:1 264:1 288:1 289:1 292:1 293:1 317:1 318:1 321:1 322:1 346:1 347:1 350:1 351:1 375:1 379:1 403:1 404:1 407:1 408:1 433:1 436:1 437:1 462:1 465:1 466:1 491:1 495:1 496:1 497:1 498:1 520:1 526:1 527:1 549:1 550:1 551:1 555:1 556:1 580:1 581:1 584:1 585:1 609:1 610:1 614:1 615:1 638:1 639:1 666:1 785:1 
1 203:1 231:1 232:1 233:1 259:1 261:1 287:1 289:1 315:1 317:1 343:1 345:1 371:1 373:1 399:1 401:1 402:1 408:1 409:1 410:1 411:1 427:1 430:1 431:1 434:1 435:1 439:1 440:1 441:1 455:1 456:1 459:1 460:1 461:1 462:1 464:1 469:1 484:1 485:1 492:1 493:1 494:1 497:1 498:1 513:1 514:1 519:1 520:1 523:1 526:1 542:1 543:1 544:1 545:1 546:1 547:1 552:1 553:1 554:1 785:1 
1 299:1 300:1 301:1 302:1 326:1 327:1 330:1 348:1 349:1 350:1 351:1 352:1 353:1 354:1 357:1 374:1 375:1 384:1 385:1 401:1 402:1 406:1 407:1 408:1 410:1 411:1 412:1 428:1 429:1 432:1 433:1 437:1 456:1 459:1 460:1 484:1 486:1 487:1 513:1 514:1 785:1 
1 443:1 469:1 470:1 471:1 496:1 497:1 499:1 523:1 524:1 527:1 550:1 551:1 554:1 555:1 577:1 578:1 581:1 582:1 604:1 605:1 608:1 609:1 631:1 632:1 635:1 636:1 659:1 662:1 663:1 687:1 690:1 715:1 717:1 742:1 745:1 770:1 773:1 785:1 
0.43848732033238769 59:1 60:1 85:1 86:1 88:1 89:1 96:1 114:1 116:1 123:1 124:1 141:1 144:1 145:1 151:1 171:1 172:1 178:1 179:1 180:1 198:1 199:1 206:1 208:1 225:1 226:1 234:1 235:1 236:1 262:1 264:1 289:1 292:1 317:1 320:1 321:1 346:1 349:1 352:1 374:1 377:1 379:1 381:1 382:1 402:1 404:1 405:1 406:1 407:1 410:1 411:1 412:1 413:1 429:1 430:1 442:1 457:1 463:1 466:1 467:1 468:1 469:1 470:1 484:1 485:1 490:1 491:1 493:1 512:1 518:1 521:1 540:1 541:1 545:1 546:1 549:1 564:1 565:1 566:1 569:1 570:1 571:1 573:1 592:1 595:1 600:1 620:1 621:1 622:1 623:1 649:1 650:1 678:1 705:1 706:1 733:1 761:1 785:1 
1 72:1 73:1 74:1 99:1 100:1 102:1 126:1 127:1 130:1 154:1 157:1 158:1 182:1 185:1 210:1 213:1 237:1 240:1 264:1 265:1 268:1 291:1 292:1 295:1 296:1 319:1 323:1 346:1 350:1 351:1 374:1 378:1 402:1 405:1 430:1 433:1 458:1 461:1 487:1 489:1 515:1 518:1 543:1 546:1 571:1 574:1 599:1 602:1 627:1 630:1 654:1 657:1 682:1 683:1 685:1 711:1 712:1 713:1 785:1 
0.087574066327468725 94:1 96:1 102:1 103:1 104:1 113:1 114:1 115:1 116:1 117:1 118:1 119:1 120:1 121:1 123:1 125:1 126:1 127:1 128:1 129:1 133:1 134:1 135:1 136:1 137:1 138:1 139:1 140:1 255:1 256:1 257:1 258:1 283:1 286:1 287:1 311:1 312:1 315:1 316:1 340:1 341:1 344:1 345:1 369:1 370:1 374:1 375:1 376:1 377:1 378:1 379:1 380:1 382:1 383:1 398:1 399:1 400:1 408:1 409:1 428:1 429:1 437:1 438:1 457:1 458:1 459:1 460:1 461:1 462:1 463:1 466:1 467:1 468:1 469:1 470:1 471:1 472:1 473:1 491:1 492:1 501:1 502:1 520:1 521:1 530:1 531:1 549:1 550:1 551:1 552:1 553:1 554:1 555:1 556:1 557:1 785:1 
1 209:1 210:1 211:1 212:1 234:1 235:1 236:1 241:1 242:1 243:1 244:1 245:1 246:1 247:1 248:1 261:1 262:1 289:1 292:1 293:1 294:1 295:1 296:1 297:1 298:1 299:1 300:1 301:1 302:1 303:1 304:1 317:1 319:1 320:1 345:1 347:1 373:1 375:1 401:1 403:1 429:1 431:1 456:1 457:1 459:1 483:1 484:1 487:1 509:1 510:1 511:1 514:1 515:1 541:1 542:1 565:1 566:1 567:1 568:1 785:1 
1 6:1 9:1 35:1 36:1 37:1 38:1 39:1 40:1 63:1 68:1 91:1 92:1 93:1 94:1 95:1 96:1 121:1 255:1 256:1 257:1 283:1 285:1 311:1 313:1 314:1 339:1 342:1 343:1 344:1 345:1 367:1 368:1 373:1 374:1 396:1 397:1 402:1 403:1 426:1 427:1 428:1 431:1 432:1 436:1 437:1 438:1 439:1 440:1 441:1 442:1 443:1 457:1 461:1 462:1 463:1 472:1 473:1 486:1 487:1 501:1 502:1 515:1 516:1 519:1 520:1 521:1 522:1 523:1 524:1 525:1 526:1 527:1 529:1 545:1 546:1 556:1 785:1 
1 121:1 148:1 150:1 176:1 178:1 204:1 206:1 232:1 234:1 260:1 262:1 288:1 290:1 316:1 318:1 344:1 346:1 347:1 372:1 375:1 401:1 404:1 429:1 432:1 458:1 461:1 486:1 487:1 489:1 490:1 515:1 518:1 544:1 546:1 547:1 572:1 575:1 576:1 577:1 578:1 601:1 606:1 607:1 608:1 609:1 630:1 631:1 632:1 637:1 661:1 662:1 663:1 664:1 665:1 785:1 
1 287:1 288:1 289:1 290:1 291:1 292:1 293:1 294:1 295:1 314:1 315:1 323:1 324:1 341:1 342:1 352:1 353:1 368:1 369:1 372:1 373:1 374:1 375:1 376:1 377:1 378:1 382:1 383:1 384:1 385:1 386:1 387:1 388:1 395:1 396:1 399:1 400:1 406:1 407:1 408:1 416:1 417:1 418:1 423:1 426:1 427:1 436:1 437:1 441:1 442:1 446:1 447:1 451:1 452:1 453:1 454:1 466:1 467:1 468:1 471:1 472:1 475:1 500:1 501:1 502:1 785:1 
1 266:1 267:1 276:1 277:1 278:1 279:1 280:1 293:1 294:1 304:1 320:1 321:1 324:1 331:1 332:1 333:1 347:1 348:1 352:1 353:1 358:1 361:1 374:1 375:1 380:1 381:1 382:1 383:1 389:1 402:1 411:1 412:1 416:1 417:1 440:1 443:1 444:1 457:1 458:1 459:1 460:1 469:1 488:1 496:1 497:1 516:1 517:1 518:1 523:1 524:1 546:1 547:1 548:1 549:1 550:1 551:1 669:1 670:1 671:1 672:1 697:1 723:1 724:1 750:1 752:1 753:1 778:1 780:1 785:1 
1 240:1 268:1 296:1 297:1 298:1 323:1 324:1 349:1 350:1 351:1 375:1 376:1 377:1 381:1 402:1 403:1 407:1 408:1 428:1 429:1 430:1 433:1 434:1 449:1 450:1 451:1 455:1 456:1 460:1 462:1 480:1 481:1 482:1 486:1 487:1 490:1 512:1 513:1 517:1 518:1 538:1 539:1 545:1 564:1 565:1 566:1 573:1 592:1 601:1 619:1 620:1 630:1 645:1 646:1 648:1 657:1 686:1 713:1 741:1 785:1 
1 255:1 256:1 257:1 258:1 259:1 282:1 283:1 287:1 288:1 309:1 310:1 316:1 317:1 340:1 341:1 342:1 345:1 346:1 365:1 366:1 367:1 370:1 371:1 374:1 375:1 399:1 400:1 403:1 404:1 428:1 432:1 433:1 434:1 435:1 442:1 443:1 456:1 457:1 464:1 465:1 466:1 467:1 468:1 469:1 472:1 473:1 474:1 475:1 480:1 486:1 487:1 502:1 505:1 506:1 507:1 509:1 510:1 511:1 515:1 516:1 517:1 526:1 527:1 528:1 529:1 530:1 531:1 532:1 546:1 547:1 548:1 549:1 550:1 551:1 552:1 553:1 785:1 
1 237:1 238:1 239:1 265:1 267:1 293:1 295:1 321:1 323:1 348:1 351:1 375:1 376:1 379:1 380:1 402:1 403:1 409:1 410:1 430:1 438:1 439:1 457:1 463:1 467:1 485:1 486:1 491:1 495:1 514:1 515:1 516:1 517:1 518:1 519:1 520:1 522:1 523:1 548:1 549:1 550:1 785:1 
0.38286563106264954 187:1 188:1 214:1 215:1 242:1 244:1 246:1 269:1 270:1 273:1 296:1 297:1 300:1 323:1 324:1 327:1 350:1 351:1 354:1 377:1 381:1 403:1 404:1 408:1 409:1 430:1 431:1 435:1 436:1 457:1 458:1 462:1 463:1 485:1 488:1 489:1 490:1 511:1 512:1 515:1 516:1 538:1 539:1 543:1 565:1 566:1 569:1 570:1 571:1 590:1 591:1 592:1 596:1 597:1 623:1 624:1 646:1 647:1 648:1 649:1 650:1 651:1 785:1 
1 230:1 231:1 232:1 233:1 259:1 261:1 262:1 286:1 287:1 290:1 315:1 318:1 344:1 346:1 372:1 375:1 400:1 403:1 405:1 428:1 430:1 434:1 456:1 459:1 462:1 463:1 484:1 487:1 491:1 492:1 506:1 507:1 508:1 509:1 512:1 515:1 520:1 521:1 533:1 534:1 537:1 539:1 540:1 542:1 549:1 565:1 566:1 567:1 570:1 577:1 578:1 597:1 598:1 606:1 624:1 625:1 634:1 635:1 645:1 646:1 647:1 648:1 649:1 650:1 651:1 652:1 656:1 657:1 658:1 659:1 660:1 661:1 663:1 664:1 692:1 693:1 721:1 749:1 750:1 778:1 785:1 
1 312:1 313:1 314:1 315:1 316:1 317:1 318:1 319:1 320:1 321:1 322:1 323:1 324:1 325:1 326:1 327:1 328:1 329:1 330:1 331:1 332:1 333:1 334:1 339:1 340:1 361:1 389:1 417:1 785:1 
1 27:1 55:1 83:1 110:1 111:1 137:1 138:1 164:1 165:1 192:1 219:1 220:1 246:1 247:1 263:1 264:1 265:1 266:1 267:1 268:1 269:1 270:1 271:1 272:1 273:1 274:1 291:1 318:1 319:1 346:1 349:1 374:1 375:1 376:1 402:1 405:1 406:1 408:1 434:1 435:1 436:1 785:1 
0.56456371561132879 234:1 235:1 262:1 264:1 289:1 290:1 293:1 318:1 319:1 322:1 347:1 348:1 351:1 352:1 376:1 377:1 380:1 381:1 405:1 406:1 409:1 410:1 434:1 435:1 438:1 439:1 463:1 464:1 467:1 492:1 493:1 496:1 521:1 522:1 524:1 550:1 551:1 552:1 785:1 
1 293:1 315:1 316:1 317:1 318:1 319:1 320:1 322:1 342:1 343:1 350:1 371:1 377:1 399:1 405:1 406:1 407:1 408:1 409:1 410:1 411:1 412:1 413:1 414:1 427:1 442:1 455:1 456:1 457:1 458:1 459:1 460:1 468:1 469:1 470:1 489:1 490:1 491:1 492:1 493:1 494:1 495:1 785:1 
1 311:1 312:1 313:1 339:1 341:1 342:1 366:1 367:1 370:1 371:1 372:1 373:1 374:1 375:1 376:1 377:1 378:1 379:1 380:1 381:1 382:1 383:1 384:1 385:1 395:1 396:1 414:1 415:1 416:1 417:1 424:1 425:1 446:1 453:1 454:1 455:1 456:1 457:1 458:1 459:1 460:1 461:1 462:1 463:1 464:1 465:1 466:1 467:1 468:1 469:1 470:1 471:1 472:1 473:1 474:1 785:1 
1 120:1 121:1 122:1 123:1 151:1 152:1 177:1 180:1 181:1 205:1 206:1 209:1 234:1 235:1 237:1 263:1 265:1 291:1 293:1 319:1 321:1 347:1 349:1 375:1 377:1 402:1 405:1 430:1 433:1 458:1 461:1 487:1 490:1 515:1 516:1 518:1 519:1 520:1 544:1 548:1 549:1 573:1 574:1 577:1 578:1 579:1 602:1 603:1 607:1 608:1 609:1 631:1 632:1 660:1 661:1 662:1 663:1 664:1 725:1 751:1 752:1 753:1 779:1 781:1 785:1 
1 75:1 76:1 77:1 80:1 102:1 103:1 106:1 107:1 129:1 130:1 133:1 134:1 156:1 157:1 160:1 161:1 176:1 177:1 178:1 179:1 180:1 181:1 182:1 183:1 184:1 187:1 188:1 203:1 204:1 214:1 215:1 231:1 235:1 236:1 241:1 242:1 259:1 262:1 265:1 266:1 267:1 268:1 269:1 287:1 289:1 293:1 315:1 317:1 321:1 322:1 323:1 324:1 343:1 345:1 348:1 349:1 352:1 353:1 363:1 364:1 371:1 373:1 376:1 381:1 391:1 399:1 401:1 404:1 409:1 418:1 427:1 429:1 432:1 433:1 436:1 437:1 447:1 455:1 456:1 457:1 461:1 462:1 463:1 464:1 475:1 503:1 523:1 524:1 525:1 526:1 527:1 531:1 551:1 555:1 559:1 578:1 583:1 587:1 606:1 611:1 615:1 634:1 639:1 643:1 662:1 667:1 671:1 673:1 674:1 675:1 676:1 690:1 696:1 699:1 700:1 704:1 718:1 724:1 733:1 746:1 752:1 761:1 774:1 779:1 785:1 
1 24:1 52:1 53:1 54:1 81:1 109:1 110:1 138:1 296:1 297:1 298:1 299:1 300:1 323:1 324:1 328:1 349:1 350:1 351:1 356:1 375:1 376:1 377:1 381:1 382:1 384:1 402:1 403:1 408:1 409:1 429:1 430:1 434:1 435:1 436:1 457:1 460:1 461:1 462:1 485:1 486:1 490:1 514:1 542:1 543:1 544:1 545:1 546:1 547:1 548:1 785:1 
1 210:1 211:1 212:1 213:1 214:1 215:1 216:1 217:1 235:1 236:1 237:1 246:1 262:1 263:1 289:1 290:1 296:1 297:1 298:1 299:1 300:1 301:1 302:1 316:1 317:1 320:1 321:1 322:1 323:1 324:1 343:1 344:1 347:1 348:1 371:1 374:1 375:1 399:1 403:1 427:1 428:1 431:1 432:1 445:1 446:1 447:1 448:1 456:1 457:1 460:1 461:1 471:1 472:1 485:1 486:1 489:1 490:1 498:1 499:1 501:1 502:1 514:1 515:1 518:1 543:1 544:1 545:1 546:1 785:1 
1 149:1 150:1 151:1 152:1 153:1 154:1 155:1 183:1 184:1 205:1 206:1 212:1 213:1 235:1 236:1 237:1 238:1 241:1 242:1 266:1 267:1 270:1 295:1 298:1 323:1 326:1 327:1 352:1 355:1 380:1 381:1 384:1 409:1 412:1 437:1 440:1 464:1 467:1 468:1 492:1 495:1 520:1 523:1 548:1 552:1 576:1 577:1 580:1 605:1 606:1 607:1 608:1 636:1 785:1 
1 260:1 261:1 262:1 263:1 287:1 288:1 292:1 293:1 314:1 315:1 321:1 322:1 343:1 345:1 346:1 347:1 351:1 352:1 353:1 370:1 371:1 372:1 373:1 376:1 377:1 382:1 383:1 405:1 406:1 411:1 412:1 435:1 436:1 437:1 441:1 466:1 470:1 495:1 496:1 498:1 525:1 526:1 785:1 
1 4:1 31:1 60:1 89:1 115:1 116:1 144:1 172:1 200:1 226:1 227:1 256:1 257:1 283:1 284:1 312:1 340:1 368:1 396:1 423:1 451:1 479:1 508:1 536:1 564:1 592:1 620:1 648:1 649:1 677:1 706:1 707:1 708:1 709:1 710:1 711:1 712:1 713:1 714:1 715:1 716:1 717:1 718:1 719:1 720:1 721:1 722:1 723:1 724:1 725:1 726:1 727:1 728:1 785:1 
1 229:1 230:1 231:1 232:1 233:1 234:1 235:1 236:1 237:1 238:1 239:1 240:1 241:1 257:1 269:1 270:1 285:1 286:1 287:1 293:1 294:1 295:1 298:1 299:1 316:1 317:1 318:1 319:1 320:1 323:1 324:1 327:1 328:1 352:1 353:1 356:1 357:1 381:1 382:1 385:1 386:1 411:1 414:1 415:1 440:1 443:1 444:1 469:1 472:1 497:1 498:1 500:1 526:1 527:1 528:1 554:1 785:1 
1 246:1 273:1 275:1 301:1 303:1 329:1 331:1 350:1 356:1 359:1 377:1 378:1 383:1 384:1 386:1 387:1 404:1 405:1 407:1 410:1 411:1 414:1 427:1 428:1 429:1 430:1 431:1 432:1 435:1 436:1 437:1 438:1 441:1 442:1 468:1 469:1 495:1 496:1 515:1 516:1 517:1 518:1 519:1 520:1 521:1 522:1 785:1 
1 257:1 258:1 259:1 260:1 285:1 288:1 289:1 290:1 313:1 318:1 319:1 340:1 341:1 343:1 347:1 348:1 349:1 350:1 351:1 352:1 353:1 354:1 369:1 370:1 372:1 373:1 382:1 383:1 398:1 401:1 402:1 411:1 412:1 430:1 431:1 432:1 433:1 434:1 435:1 436:1 437:1 440:1 441:1 443:1 444:1 445:1 465:1 466:1 469:1 470:1 473:1 494:1 495:1 501:1 523:1 524:1 525:1 528:1 529:1 554:1 555:1 785:1 
1 241:1 242:1 243:1 256:1 257:1 258:1 259:1 260:1 261:1 262:1 263:1 264:1 265:1 266:1 267:1 268:1 271:1 284:1 299:1 312:1 313:1 314:1 315:1 319:1 326:1 327:1 344:1 345:1 346:1 348:1 349:1 350:1 352:1 354:1 378:1 379:1 382:1 383:1 407:1 408:1 411:1 412:1 436:1 437:1 440:1 441:1 442:1 443:1 444:1 465:1 466:1 472:1 473:1 495:1 496:1 497:1 501:1 526:1 527:1 528:1 529:1 558:1 586:1 614:1 785:1 
1 78:1 79:1 80:1 106:1 108:1 134:1 136:1 137:1 162:1 165:1 191:1 192:1 194:1 195:1 219:1 223:1 224:1 241:1 243:1 248:1 249:1 269:1 271:1 277:1 278:1 296:1 297:1 299:1 306:1 307:1 324:1 326:1 335:1 336:1 352:1 354:1 379:1 380:1 382:1 406:1 410:1 433:1 434:1 438:1 461:1 465:1 466:1 479:1 480:1 481:1 482:1 483:1 484:1 488:1 489:1 492:1 493:1 505:1 506:1 513:1 514:1 515:1 519:1 520:1 546:1 547:1 562:1 563:1 564:1 565:1 566:1 567:1 568:1 572:1 573:1 574:1 589:1 590:1 597:1 598:1 599:1 619:1 647:1 648:1 649:1 650:1 785:1 
1 530:1 531:1 532:1 556:1 557:1 558:1 583:1 584:1 609:1 610:1 611:1 635:1 636:1 637:1 662:1 663:1 690:1 718:1 745:1 773:1 785:1 
1 79:1 105:1 106:1 108:1 132:1 133:1 136:1 137:1 159:1 160:1 163:1 164:1 187:1 190:1 191:1 211:1 212:1 213:1 214:1 217:1 218:1 225:1 237:1 238:1 244:1 245:1 254:1 255:1 264:1 265:1 270:1 271:1 272:1 283:1 288:1 289:1 290:1 291:1 292:1 295:1 296:1 297:1 309:1 310:1 311:1 315:1 316:1 322:1 323:1 342:1 343:1 349:1 350:1 369:1 370:1 378:1 379:1 380:1 381:1 382:1 383:1 393:1 394:1 395:1 396:1 397:1 400:1 401:1 402:1 411:1 412:1 424:1 427:1 428:1 430:1 431:1 440:1 441:1 449:1 450:1 451:1 452:1 453:1 454:1 455:1 459:1 460:1 461:1 462:1 463:1 464:1 465:1 466:1 469:1 470:1 494:1 495:1 498:1 499:1 500:1 501:1 502:1 523:1 524:1 530:1 531:1 552:1 553:1 554:1 555:1 559:1 560:1 584:1 585:1 588:1 613:1 641:1 642:1 670:1 671:1 672:1 697:1 785:1 
1 38:1 39:1 40:1 41:1 42:1 43:1 65:1 66:1 71:1 72:1 73:1 92:1 93:1 101:1 120:1 129:1 148:1 157:1 176:1 184:1 185:1 204:1 210:1 211:1 232:1 233:1 238:1 261:1 262:1 264:1 265:1 266:1 290:1 291:1 292:1 340:1 341:1 342:1 343:1 344:1 345:1 346:1 347:1 348:1 349:1 350:1 351:1 352:1 353:1 354:1 355:1 356:1 357:1 358:1 359:1 360:1 361:1 362:1 363:1 364:1 368:1 391:1 394:1 395:1 396:1 403:1 419:1 424:1 425:1 426:1 427:1 428:1 429:1 430:1 432:1 433:1 434:1 435:1 436:1 437:1 438:1 439:1 440:1 441:1 442:1 443:1 444:1 445:1 446:1 447:1 448:1 785:1 
1 198:1 199:1 200:1 228:1 256:1 257:1 275:1 276:1 283:1 285:1 286:1 303:1 305:1 311:1 314:1 315:1 327:1 328:1 329:1 330:1 333:1 339:1 340:1 343:1 344:1 353:1 354:1 355:1 360:1 361:1 368:1 369:1 372:1 373:1 380:1 381:1 387:1 388:1 397:1 398:1 401:1 402:1 407:1 408:1 411:1 412:1 413:1 414:1 415:1 426:1 427:1 431:1 432:1 433:1 434:1 438:1 439:1 455:1 456:1 465:1 466:1 484:1 485:1 486:1 487:1 492:1 493:1 516:1 517:1 518:1 519:1 520:1 785:1 
1 59:1 60:1 61:1 87:1 89:1 115:1 117:1 143:1 145:1 146:1 171:1 174:1 199:1 202:1 227:1 230:1 255:1 258:1 259:1 283:1 284:1 287:1 288:1 289:1 290:1 312:1 313:1 318:1 319:1 341:1 342:1 343:1 347:1 348:1 349:1 372:1 373:1 376:1 401:1 402:1 404:1 430:1 432:1 459:1 460:1 785:1 
1 2:1 30:1 58:1 59:1 87:1 88:1 113:1 116:1 117:1 141:1 142:1 145:1 170:1 173:1 199:1 201:1 202:1 227:1 230:1 231:1 232:1 233:1 255:1 256:1 262:1 263:1 284:1 285:1 291:1 292:1 293:1 314:1 315:1 316:1 317:1 319:1 322:1 323:1 346:1 347:1 351:1 376:1 377:1 379:1 405:1 407:1 433:1 435:1 785:1 
1 15:1 43:1 71:1 99:1 127:1 156:1 184:1 212:1 213:1 241:1 242:1 251:1 252:1 270:1 271:1 272:1 277:1 278:1 279:1 285:1 301:1 302:1 303:1 304:1 313:1 340:1 342:1 343:1 368:1 372:1 373:1 374:1 375:1 376:1 377:1 378:1 379:1 380:1 381:1 382:1 388:1 397:1 416:1 425:1 426:1 427:1 444:1 456:1 457:1 458:1 459:1 460:1 461:1 462:1 463:1 464:1 465:1 466:1 467:1 468:1 469:1 470:1 471:1 472:1 785:1 
1 20:1 48:1 74:1 76:1 98:1 99:1 100:1 101:1 103:1 125:1 126:1 131:1 152:1 153:1 158:1 159:1 180:1 184:1 185:1 186:1 208:1 211:1 236:1 237:1 240:1 265:1 266:1 269:1 294:1 297:1 322:1 325:1 350:1 353:1 378:1 380:1 381:1 405:1 406:1 407:1 408:1 785:1 
0.19082188418914073 241:1 242:1 243:1 269:1 271:1 272:1 296:1 297:1 300:1 301:1 318:1 319:1 320:1 321:1 322:1 323:1 330:1 331:1 345:1 346:1 359:1 369:1 370:1 371:1 372:1 373:1 381:1 382:1 384:1 385:1 386:1 387:1 398:1 403:1 404:1 405:1 406:1 407:1 408:1 411:1 425:1 426:1 430:1 431:1 452:1 454:1 455:1 456:1 457:1 458:1 477:1 478:1 479:1 785:1 
1 85:1 86:1 114:1 115:1 143:1 144:1 172:1 173:1 197:1 198:1 201:1 202:1 226:1 227:1 230:1 231:1 255:1 256:1 259:1 284:1 285:1 288:1 313:1 316:1 341:1 344:1 369:1 372:1 373:1 374:1 375:1 397:1 404:1 405:1 421:1 422:1 423:1 424:1 425:1 426:1 433:1 434:1 462:1 491:1 519:1 546:1 574:1 601:1 602:1 618:1 619:1 620:1 629:1 645:1 646:1 648:1 649:1 657:1 677:1 678:1 679:1 685:1 707:1 713:1 714:1 715:1 735:1 743:1 744:1 763:1 772:1 785:1 
1 247:1 248:1 249:1 267:1 268:1 269:1 270:1 271:1 272:1 273:1 274:1 277:1 294:1 295:1 304:1 305:1 321:1 322:1 325:1 326:1 327:1 328:1 329:1 330:1 331:1 332:1 346:1 347:1 348:1 349:1 352:1 353:1 371:1 372:1 373:1 379:1 380:1 398:1 399:1 404:1 405:1 406:1 407:1 425:1 426:1 429:1 430:1 431:1 452:1 453:1 456:1 457:1 480:1 483:1 484:1 508:1 509:1 510:1 511:1 640:1 641:1 642:1 643:1 644:1 668:1 696:1 699:1 700:1 725:1 726:1 785:1 
0.52934075930898294 121:1 147:1 148:1 149:1 150:1 173:1 174:1 178:1 203:1 204:1 207:1 208:1 232:1 233:1 236:1 261:1 262:1 264:1 290:1 292:1 293:1 318:1 321:1 346:1 349:1 374:1 377:1 401:1 402:1 404:1 427:1 428:1 432:1 457:1 460:1 485:1 489:1 513:1 514:1 517:1 518:1 519:1 520:1 521:1 522:1 523:1 524:1 542:1 543:1 552:1 553:1 571:1 572:1 581:1 582:1 600:1 601:1 602:1 603:1 604:1 605:1 606:1 607:1 636:1 638:1 664:1 665:1 667:1 693:1 694:1 695:1 785:1 
1 241:1 242:1 243:1 244:1 269:1 272:1 298:1 300:1 327:1 328:1 485:1 486:1 487:1 488:1 495:1 496:1 510:1 511:1 512:1 517:1 518:1 519:1 520:1 521:1 522:1 524:1 537:1 538:1 552:1 564:1 565:1 569:1 570:1 571:1 572:1 578:1 579:1 580:1 589:1 590:1 591:1 592:1 595:1 596:1 601:1 602:1 603:1 604:1 605:1 622:1 623:1 649:1 650:1 673:1 674:1 675:1 676:1 677:1 785:1 
1 24:1 52:1 80:1 108:1 136:1 137:1 138:1 167:1 168:1 210:1 211:1 212:1 237:1 238:1 241:1 242:1 264:1 265:1 270:1 271:1 276:1 277:1 278:1 279:1 280:1 290:1 291:1 296:1 299:1 300:1 303:1 304:1 317:1 318:1 322:1 323:1 324:1 325:1 328:1 329:1 331:1 332:1 344:1 345:1 349:1 350:1 353:1 354:1 357:1 360:1 361:1 371:1 372:1 376:1 377:1 382:1 383:1 385:1 388:1 398:1 399:1 403:1 404:1 410:1 414:1 416:1 426:1 430:1 431:1 438:1 442:1 444:1 455:1 456:1 457:1 465:1 466:1 469:1 470:1 471:1 472:1 473:1 492:1 493:1 496:1 497:1 501:1 502:1 503:1 504:1 520:1 523:1 524:1 548:1 550:1 551:1 577:1 578:1 785:1 
1 203:1 229:1 230:1 232:1 233:1 256:1 261:1 262:1 263:1 284:1 292:1 293:1 294:1 312:1 322:1 323:1 324:1 340:1 352:1 353:1 368:1 369:1 370:1 371:1 382:1 383:1 384:1 399:1 400:1 412:1 413:1 414:1 428:1 429:1 430:1 435:1 442:1 459:1 460:1 461:1 462:1 464:1 465:1 470:1 471:1 493:1 494:1 495:1 499:1 500:1 501:1 523:1 524:1 527:1 529:1 552:1 553:1 554:1 555:1 785:1 
1 63:1 91:1 117:1 118:1 119:1 120:1 145:1 148:1 149:1 174:1 177:1 178:1 202:1 203:1 206:1 207:1 225:1 226:1 231:1 232:1 236:1 237:1 238:1 239:1 255:1 260:1 261:1 267:1 268:1 283:1 289:1 290:1 291:1 296:1 297:1 298:1 309:1 310:1 311:1 319:1 320:1 321:1 322:1 326:1 327:1 350:1 351:1 355:1 379:1 380:1 383:1 384:1 408:1 409:1 412:1 437:1 440:1 465:1 468:1 493:1 496:1 521:1 524:1 549:1 552:1 577:1 580:1 581:1 606:1 634:1 645:1 646:1 647:1 648:1 649:1 650:1 651:1 652:1 653:1 654:1 655:1 656:1 657:1 658:1 659:1 660:1 663:1 664:1 665:1 666:1 667:1 668:1 669:1 670:1 671:1 672:1 785:1 
1 171:1 173:1 199:1 200:1 201:1 202:1 227:1 231:1 232:1 233:1 255:1 256:1 262:1 284:1 285:1 286:1 287:1 288:1 291:1 295:1 296:1 297:1 316:1 317:1 320:1 321:1 322:1 326:1 327:1 328:1 329:1 345:1 346:1 357:1 358:1 359:1 374:1 375:1 376:1 377:1 387:1 406:1 407:1 415:1 435:1 436:1 438:1 439:1 443:1 465:1 468:1 469:1 472:1 497:1 498:1 500:1 501:1 526:1 529:1 554:1 555:1 557:1 583:1 584:1 785:1 
1 210:1 211:1 212:1 213:1 214:1 215:1 237:1 238:1 243:1 264:1 265:1 268:1 269:1 270:1 271:1 286:1 287:1 288:1 289:1 290:1 291:1 292:1 295:1 296:1 297:1 312:1 313:1 322:1 323:1 339:1 340:1 349:1 350:1 367:1 370:1 371:1 372:1 373:1 374:1 375:1 376:1 395:1 398:1 423:1 424:1 452:1 453:1 456:1 482:1 483:1 484:1 485:1 486:1 487:1 488:1 785:1 
1 277:1 303:1 304:1 305:1 313:1 314:1 315:1 316:1 317:1 318:1 331:1 333:1 334:1 338:1 339:1 340:1 341:1 346:1 347:1 348:1 358:1 359:1 362:1 376:1 377:1 386:1 389:1 394:1 395:1 396:1 397:1 398:1 399:1 400:1 401:1 402:1 405:1 406:1 413:1 414:1 417:1 430:1 431:1 435:1 436:1 437:1 438:1 439:1 440:1 445:1 459:1 460:1 472:1 473:1 488:1 489:1 490:1 492:1 493:1 494:1 497:1 498:1 499:1 500:1 519:1 523:1 524:1 785:1 
0.34815776402250509 74:1 75:1 102:1 104:1 130:1 132:1 157:1 160:1 185:1 188:1 212:1 213:1 215:1 216:1 239:1 240:1 243:1 267:1 270:1 271:1 295:1 298:1 322:1 325:1 350:1 353:1 377:1 378:1 381:1 404:1 405:1 408:1 409:1 431:1 432:1 435:1 436:1 458:1 459:1 462:1 463:1 477:1 478:1 485:1 486:1 489:1 490:1 506:1 507:1 513:1 516:1 517:1 535:1 536:1 541:1 543:1 544:1 569:1 571:1 589:1 590:1 591:1 592:1 597:1 599:1 620:1 621:1 624:1 627:1 652:1 655:1 681:1 683:1 709:1 710:1 711:1 785:1 
1 263:1 264:1 290:1 292:1 318:1 321:1 346:1 347:1 350:1 351:1 352:1 353:1 354:1 355:1 375:1 376:1 383:1 404:1 405:1 411:1 433:1 440:1 462:1 467:1 490:1 491:1 494:1 495:1 520:1 521:1 522:1 785:1 
1 77:1 106:1 133:1 135:1 164:1 192:1 193:1 221:1 249:1 276:1 304:1 331:1 332:1 358:1 359:1 385:1 386:1 412:1 413:1 439:1 440:1 467:1 495:1 523:1 551:1 579:1 607:1 634:1 635:1 661:1 662:1 685:1 686:1 687:1 688:1 689:1 785:1 
1 212:1 238:1 239:1 241:1 242:1 243:1 265:1 266:1 271:1 272:1 293:1 296:1 297:1 300:1 321:1 324:1 326:1 327:1 328:1 349:1 352:1 356:1 377:1 379:1 380:1 404:1 407:1 430:1 431:1 434:1 435:1 454:1 455:1 456:1 457:1 458:1 462:1 485:1 488:1 489:1 510:1 513:1 515:1 516:1 538:1 539:1 540:1 542:1 543:1 785:1 
1 265:1 266:1 267:1 268:1 269:1 292:1 293:1 297:1 298:1 309:1 310:1 311:1 312:1 313:1 314:1 315:1 316:1 317:1 318:1 319:1 320:1 326:1 327:1 328:1 329:1 341:1 350:1 351:1 352:1 358:1 359:1 369:1 377:1 378:1 380:1 381:1 387:1 388:1 397:1 398:1 399:1 400:1 401:1 402:1 403:1 404:1 405:1 410:1 411:1 412:1 413:1 416:1 441:1 444:1 445:1 469:1 470:1 473:1 498:1 501:1 527:1 528:1 529:1 785:1 
1 5:1 10:1 13:1 15:1 33:1 37:1 41:1 43:1 61:1 65:1 69:1 71:1 89:1 90:1 92:1 93:1 98:1 99:1 118:1 119:1 120:1 123:1 124:1 125:1 261:1 262:1 263:1 264:1 265:1 287:1 288:1 289:1 293:1 294:1 315:1 322:1 323:1 342:1 343:1 346:1 347:1 348:1 351:1 352:1 355:1 356:1 357:1 358:1 359:1 369:1 370:1 373:1 376:1 377:1 380:1 381:1 382:1 387:1 388:1 397:1 400:1 401:1 405:1 406:1 416:1 425:1 427:1 428:1 434:1 435:1 437:1 438:1 439:1 440:1 441:1 442:1 445:1 453:1 454:1 455:1 464:1 470:1 472:1 498:1 500:1 527:1 528:1 785:1 
1 246:1 248:1 249:1 274:1 277:1 302:1 305:1 329:1 330:1 333:1 355:1 356:1 357:1 360:1 361:1 383:1 387:1 388:1 396:1 397:1 398:1 409:1 410:1 411:1 414:1 415:1 427:1 428:1 436:1 437:1 441:1 442:1 452:1 453:1 456:1 457:1 464:1 468:1 469:1 481:1 482:1 485:1 486:1 487:1 488:1 489:1 490:1 491:1 492:1 495:1 496:1 510:1 511:1 522:1 523:1 539:1 540:1 549:1 550:1 569:1 570:1 571:1 572:1 573:1 574:1 575:1 576:1 577:1 785:1 
1 27:1 55:1 83:1 111:1 139:1 140:1 141:1 142:1 145:1 150:1 151:1 152:1 153:1 156:1 157:1 158:1 159:1 160:1 171:1 172:1 174:1 175:1 176:1 177:1 182:1 183:1 185:1 188:1 213:1 216:1 222:1 223:1 224:1 239:1 241:1 244:1 250:1 267:1 269:1 270:1 272:1 278:1 295:1 298:1 301:1 305:1 306:1 323:1 324:1 326:1 327:1 330:1 332:1 333:1 352:1 355:1 356:1 359:1 381:1 384:1 385:1 409:1 413:1 414:1 437:1 442:1 443:1 465:1 471:1 472:1 473:1 493:1 494:1 496:1 501:1 522:1 523:1 530:1 531:1 551:1 554:1 555:1 556:1 559:1 578:1 579:1 581:1 582:1 584:1 585:1 588:1 605:1 606:1 609:1 610:1 613:1 614:1 632:1 633:1 636:1 637:1 642:1 643:1 660:1 663:1 664:1 671:1 672:1 688:1 691:1 716:1 719:1 720:1 744:1 745:1 748:1 749:1 773:1 777:1 785:1 
1 148:1 149:1 150:1 151:1 152:1 176:1 180:1 181:1 204:1 205:1 206:1 209:1 210:1 234:1 235:1 239:1 240:1 241:1 263:1 264:1 270:1 271:1 292:1 293:1 299:1 300:1 321:1 322:1 323:1 324:1 325:1 328:1 353:1 356:1 381:1 384:1 409:1 412:1 437:1 440:1 465:1 468:1 493:1 496:1 521:1 524:1 549:1 552:1 577:1 578:1 580:1 606:1 607:1 608:1 785:1 
1 76:1 77:1 78:1 79:1 80:1 81:1 82:1 103:1 104:1 110:1 111:1 130:1 131:1 139:1 156:1 157:1 158:1 167:1 183:1 184:1 194:1 211:1 217:1 218:1 219:1 222:1 240:1 244:1 245:1 247:1 250:1 251:1 268:1 269:1 272:1 275:1 276:1 277:1 278:1 297:1 300:1 325:1 328:1 352:1 353:1 355:1 379:1 380:1 383:1 406:1 407:1 410:1 411:1 433:1 434:1 437:1 438:1 460:1 461:1 464:1 465:1 487:1 488:1 491:1 492:1 515:1 518:1 519:1 542:1 543:1 545:1 546:1 568:1 569:1 573:1 589:1 591:1 595:1 596:1 599:1 600:1 618:1 620:1 621:1 622:1 623:1 626:1 627:1 646:1 653:1 654:1 674:1 675:1 680:1 681:1 704:1 705:1 706:1 707:1 785:1 
1 453:1 454:1 455:1 456:1 481:1 484:1 485:1 509:1 510:1 513:1 514:1 538:1 539:1 542:1 543:1 567:1 568:1 571:1 572:1 573:1 574:1 575:1 576:1 577:1 596:1 597:1 606:1 607:1 625:1 626:1 635:1 636:1 654:1 655:1 656:1 657:1 658:1 659:1 660:1 661:1 664:1 665:1 666:1 672:1 689:1 690:1 694:1 695:1 696:1 697:1 698:1 699:1 718:1 719:1 720:1 748:1 749:1 754:1 755:1 756:1 777:1 778:1 779:1 780:1 781:1 782:1 785:1 
1 184:1 185:1 186:1 187:1 188:1 213:1 216:1 217:1 240:1 241:1 242:1 245:1 246:1 270:1 274:1 298:1 302:1 326:1 330:1 354:1 358:1 382:1 386:1 410:1 414:1 434:1 435:1 436:1 437:1 438:1 441:1 461:1 462:1 468:1 469:1 488:1 489:1 495:1 496:1 511:1 512:1 514:1 515:1 516:1 519:1 520:1 521:1 522:1 540:1 541:1 542:1 546:1 547:1 567:1 573:1 574:1 596:1 597:1 598:1 599:1 600:1 601:1 785:1 
1 234:1 235:1 236:1 261:1 262:1 264:1 288:1 289:1 292:1 315:1 316:1 319:1 320:1 343:1 346:1 347:1 368:1 369:1 371:1 374:1 396:1 399:1 401:1 402:1 423:1 424:1 427:1 430:1 431:1 432:1 433:1 434:1 435:1 436:1 452:1 453:1 455:1 456:1 464:1 465:1 466:1 484:1 485:1 494:1 495:1 513:1 514:1 515:1 516:1 517:1 518:1 519:1 520:1 523:1 524:1 548:1 549:1 552:1 577:1 578:1 579:1 580:1 785:1 
1 20:1 41:1 47:1 48:1 65:1 66:1 67:1 68:1 69:1 73:1 74:1 91:1 92:1 93:1 99:1 100:1 111:1 112:1 119:1 125:1 126:1 127:1 138:1 139:1 147:1 150:1 151:1 152:1 153:1 165:1 174:1 177:1 178:1 193:1 202:1 205:1 207:1 221:1 230:1 233:1 236:1 237:1 249:1 257:1 260:1 277:1 284:1 285:1 287:1 288:1 305:1 311:1 315:1 333:1 336:1 340:1 341:1 342:1 359:1 360:1 361:1 363:1 364:1 391:1 415:1 417:1 418:1 419:1 421:1 422:1 423:1 443:1 444:1 452:1 477:1 479:1 480:1 506:1 597:1 598:1 599:1 600:1 625:1 628:1 653:1 656:1 681:1 682:1 683:1 684:1 785:1 
1 66:1 93:1 94:1 95:1 96:1 97:1 104:1 105:1 106:1 121:1 125:1 126:1 129:1 130:1 131:1 149:1 154:1 156:1 157:1 163:1 177:1 178:1 179:1 180:1 184:1 188:1 189:1 190:1 191:1 211:1 212:1 215:1 216:1 237:1 238:1 242:1 243:1 264:1 265:1 269:1 270:1 291:1 292:1 295:1 296:1 297:1 318:1 319:1 322:1 323:1 346:1 350:1 374:1 377:1 378:1 401:1 405:1 429:1 432:1 457:1 460:1 484:1 485:1 487:1 488:1 511:1 512:1 515:1 538:1 539:1 542:1 543:1 566:1 569:1 570:1 594:1 597:1 622:1 624:1 625:1 650:1 651:1 785:1 
1 315:1 316:1 317:1 341:1 342:1 343:1 345:1 346:1 356:1 357:1 358:1 368:1 369:1 374:1 375:1 382:1 383:1 396:1 403:1 404:1 409:1 413:1 414:1 424:1 427:1 428:1 429:1 432:1 433:1 436:1 437:1 440:1 441:1 452:1 455:1 457:1 458:1 461:1 462:1 463:1 464:1 467:1 468:1 480:1 483:1 486:1 487:1 494:1 495:1 508:1 511:1 515:1 516:1 520:1 521:1 522:1 536:1 537:1 539:1 544:1 545:1 547:1 548:1 574:1 575:1 603:1 673:1 674:1 675:1 676:1 677:1 678:1 679:1 680:1 681:1 682:1 683:1 684:1 685:1 686:1 687:1 688:1 689:1 690:1 691:1 692:1 693:1 694:1 695:1 696:1 697:1 698:1 699:1 700:1 785:1 
1 250:1 251:1 256:1 258:1 278:1 283:1 286:1 287:1 306:1 307:1 311:1 312:1 315:1 316:1 334:1 340:1 341:1 345:1 346:1 347:1 348:1 349:1 350:1 351:1 352:1 353:1 354:1 362:1 369:1 370:1 382:1 383:1 389:1 390:1 398:1 399:1 400:1 404:1 405:1 406:1 407:1 408:1 411:1 412:1 414:1 415:1 416:1 417:1 428:1 429:1 430:1 431:1 437:1 441:1 442:1 445:1 465:1 466:1 472:1 473:1 494:1 495:1 496:1 499:1 500:1 525:1 526:1 785:1 
1 205:1 231:1 233:1 259:1 261:1 262:1 287:1 290:1 291:1 316:1 319:1 344:1 345:1 348:1 373:1 376:1 402:1 405:1 430:1 433:1 458:1 461:1 462:1 463:1 464:1 486:1 487:1 493:1 494:1 515:1 516:1 522:1 523:1 524:1 544:1 545:1 546:1 547:1 552:1 553:1 554:1 555:1 556:1 557:1 558:1 576:1 577:1 586:1 605:1 606:1 607:1 608:1 614:1 615:1 637:1 638:1 639:1 640:1 641:1 644:1 785:1 
0.013440288862536143 215:1 216:1 217:1 218:1 219:1 241:1 242:1 247:1 248:1 249:1 268:1 269:1 271:1 277:1 278:1 295:1 296:1 300:1 301:1 302:1 303:1 322:1 323:1 327:1 328:1 332:1 350:1 353:1 354:1 355:1 360:1 361:1 376:1 377:1 380:1 381:1 403:1 404:1 407:1 408:1 431:1 434:1 435:1 457:1 458:1 459:1 461:1 462:1 478:1 479:1 480:1 481:1 482:1 483:1 484:1 485:1 489:1 506:1 515:1 516:1 534:1 535:1 536:1 537:1 538:1 539:1 540:1 541:1 542:1 543:1 561:1 582:1 609:1 610:1 611:1 612:1 637:1 641:1 665:1 669:1 671:1 672:1 693:1 694:1 698:1 722:1 723:1 725:1 752:1 780:1 785:1 
1 217:1 218:1 219:1 220:1 221:1 222:1 238:1 239:1 240:1 241:1 247:1 250:1 263:1 265:1 266:1 269:1 270:1 276:1 277:1 278:1 292:1 298:1 299:1 305:1 320:1 327:1 328:1 329:1 330:1 349:1 360:1 361:1 376:1 380:1 382:1 386:1 387:1 388:1 402:1 403:1 404:1 407:1 408:1 410:1 411:1 412:1 413:1 414:1 427:1 428:1 429:1 434:1 435:1 454:1 455:1 461:1 462:1 481:1 482:1 485:1 486:1 487:1 488:1 489:1 507:1 508:1 509:1 512:1 513:1 539:1 540:1 563:1 564:1 565:1 566:1 567:1 751:1 752:1 753:1 754:1 779:1 782:1 785:1 
1 256:1 257:1 258:1 259:1 260:1 261:1 283:1 284:1 289:1 290:1 311:1 315:1 319:1 339:1 341:1 342:1 344:1 348:1 349:1 350:1 351:1 352:1 353:1 354:1 355:1 356:1 357:1 367:1 368:1 373:1 385:1 386:1 387:1 401:1 402:1 403:1 415:1 416:1 431:1 432:1 433:1 434:1 435:1 436:1 437:1 438:1 439:1 440:1 441:1 444:1 469:1 470:1 472:1 473:1 474:1 498:1 502:1 527:1 528:1 529:1 530:1 785:1 
1 126:1 127:1 128:1 129:1 130:1 153:1 154:1 158:1 159:1 180:1 181:1 187:1 188:1 207:1 208:1 211:1 212:1 213:1 216:1 234:1 235:1 238:1 239:1 242:1 245:1 246:1 247:1 262:1 265:1 266:1 270:1 290:1 293:1 299:1 301:1 302:1 303:1 318:1 320:1 327:1 329:1 346:1 348:1 355:1 356:1 357:1 374:1 377:1 402:1 404:1 429:1 432:1 456:1 457:1 459:1 460:1 483:1 487:1 510:1 511:1 513:1 514:1 538:1 541:1 566:1 569:1 594:1 597:1 622:1 623:1 625:1 651:1 652:1 653:1 741:1 742:1 743:1 769:1 771:1 785:1 
1 13:1 15:1 19:1 22:1 41:1 42:1 43:1 46:1 47:1 50:1 51:1 75:1 76:1 79:1 80:1 104:1 105:1 108:1 109:1 133:1 134:1 137:1 138:1 162:1 163:1 166:1 167:1 191:1 192:1 195:1 196:1 220:1 221:1 224:1 249:1 276:1 277:1 279:1 280:1 303:1 304:1 307:1 308:1 330:1 331:1 334:1 335:1 357:1 358:1 361:1 362:1 386:1 388:1 389:1 414:1 415:1 416:1 442:1 444:1 785:1 
1 19:1 22:1 47:1 50:1 75:1 78:1 103:1 106:1 107:1 131:1 135:1 136:1 159:1 164:1 165:1 188:1 193:1 194:1 217:1 218:1 219:1 222:1 223:1 234:1 235:1 236:1 237:1 238:1 239:1 240:1 241:1 242:1 247:1 248:1 250:1 251:1 257:1 258:1 259:1 260:1 261:1 262:1 270:1 271:1 272:1 276:1 277:1 283:1 284:1 289:1 300:1 305:1 306:1 307:1 308:1 311:1 317:1 328:1 335:1 339:1 340:1 341:1 342:1 345:1 355:1 356:1 373:1 381:1 382:1 383:1 401:1 409:1 429:1 430:1 437:1 458:1 459:1 460:1 465:1 488:1 493:1 517:1 520:1 521:1 545:1 546:1 547:1 548:1 785:1 
1 5:1 8:1 32:1 35:1 36:1 59:1 60:1 62:1 63:1 87:1 90:1 107:1 115:1 117:1 133:1 135:1 143:1 145:1 161:1 163:1 164:1 171:1 172:1 175:1 176:1 189:1 192:1 193:1 200:1 204:1 217:1 218:1 221:1 222:1 228:1 229:1 231:1 232:1 233:1 246:1 247:1 250:1 251:1 257:1 258:1 261:1 262:1 275:1 276:1 280:1 286:1 287:1 290:1 291:1 304:1 305:1 315:1 316:1 319:1 320:1 333:1 334:1 335:1 336:1 344:1 345:1 349:1 373:1 374:1 377:1 378:1 402:1 403:1 406:1 412:1 413:1 414:1 431:1 432:1 435:1 439:1 440:1 442:1 460:1 463:1 466:1 467:1 470:1 488:1 491:1 492:1 493:1 494:1 497:1 498:1 516:1 517:1 524:1 525:1 545:1 546:1 550:1 551:1 552:1 574:1 575:1 576:1 577:1 578:1 785:1 
0.75263702264450505 12:1 14:1 18:1 23:1 34:1 35:1 36:1 39:1 40:1 41:1 42:1 46:1 51:1 57:1 58:1 59:1 62:1 70:1 74:1 76:1 79:1 87:1 88:1 89:1 90:1 91:1 92:1 93:1 94:1 95:1 96:1 97:1 98:1 99:1 100:1 101:1 102:1 103:1 104:1 105:1 106:1 107:1 124:1 129:1 152:1 153:1 154:1 155:1 156:1 157:1 182:1 207:1 235:1 263:1 287:1 288:1 289:1 290:1 291:1 314:1 315:1 319:1 320:1 341:1 342:1 349:1 368:1 369:1 372:1 373:1 374:1 375:1 378:1 379:1 380:1 381:1 382:1 383:1 384:1 396:1 399:1 403:1 404:1 412:1 413:1 424:1 425:1 426:1 432:1 433:1 442:1 461:1 462:1 463:1 464:1 465:1 466:1 467:1 468:1 471:1 496:1 497:1 500:1 525:1 526:1 527:1 554:1 785:1 
1 40:1 66:1 67:1 68:1 94:1 96:1 122:1 125:1 150:1 153:1 154:1 178:1 179:1 182:1 183:1 207:1 208:1 211:1 212:1 236:1 237:1 240:1 241:1 265:1 266:1 269:1 270:1 294:1 295:1 298:1 299:1 323:1 324:1 327:1 328:1 352:1 355:1 380:1 384:1 408:1 412:1 436:1 440:1 464:1 467:1 492:1 496:1 520:1 524:1 548:1 552:1 576:1 580:1 604:1 608:1 633:1 636:1 637:1 638:1 639:1 640:1 641:1 642:1 643:1 644:1 661:1 664:1 689:1 692:1 693:1 717:1 719:1 746:1 747:1 776:1 785:1 
1 186:1 187:1 188:1 189:1 213:1 214:1 217:1 235:1 240:1 241:1 244:1 245:1 260:1 261:1 262:1 264:1 265:1 266:1 267:1 268:1 271:1 272:1 288:1 298:1 299:1 315:1 320:1 325:1 326:1 343:1 346:1 347:1 349:1 350:1 351:1 352:1 371:1 374:1 399:1 402:1 427:1 430:1 455:1 458:1 483:1 486:1 511:1 514:1 539:1 542:1 567:1 570:1 595:1 597:1 598:1 623:1 624:1 625:1 785:1 
1 67:1 95:1 123:1 150:1 151:1 152:1 153:1 154:1 155:1 156:1 157:1 177:1 178:1 186:1 187:1 205:1 215:1 216:1 232:1 236:1 237:1 238:1 239:1 240:1 241:1 244:1 260:1 263:1 269:1 270:1 272:1 288:1 291:1 298:1 299:1 300:1 316:1 319:1 344:1 347:1 372:1 375:1 401:1 429:1 457:1 485:1 512:1 540:1 568:1 596:1 624:1 652:1 653:1 681:1 785:1 
1 121:1 148:1 150:1 151:1 152:1 153:1 175:1 176:1 181:1 182:1 183:1 204:1 205:1 206:1 211:1 212:1 235:1 236:1 237:1 240:1 241:1 265:1 266:1 269:1 270:1 294:1 295:1 298:1 299:1 323:1 324:1 327:1 328:1 352:1 353:1 356:1 357:1 381:1 382:1 385:1 410:1 411:1 414:1 439:1 442:1 467:1 470:1 495:1 498:1 523:1 526:1 551:1 554:1 579:1 582:1 607:1 608:1 610:1 638:1 666:1 695:1 785:1 
0.19505965723808841 165:1 187:1 193:1 194:1 215:1 222:1 243:1 244:1 245:1 246:1 249:1 250:1 270:1 276:1 298:1 299:1 300:1 303:1 328:1 331:1 357:1 360:1 373:1 374:1 384:1 385:1 387:1 398:1 399:1 400:1 403:1 404:1 405:1 409:1 410:1 411:1 415:1 425:1 426:1 433:1 434:1 435:1 436:1 442:1 443:1 453:1 456:1 457:1 458:1 459:1 463:1 467:1 468:1 469:1 470:1 481:1 483:1 484:1 487:1 488:1 493:1 494:1 509:1 511:1 516:1 517:1 520:1 521:1 537:1 545:1 546:1 547:1 548:1 785:1 
1 144:1 171:1 172:1 178:1 199:1 206:1 227:1 228:1 231:1 232:1 233:1 234:1 257:1 263:1 286:1 289:1 290:1 291:1 313:1 314:1 316:1 317:1 341:1 344:1 370:1 372:1 373:1 383:1 384:1 398:1 402:1 403:1 404:1 408:1 409:1 410:1 413:1 414:1 415:1 426:1 427:1 433:1 434:1 435:1 436:1 443:1 444:1 455:1 456:1 457:1 458:1 462:1 466:1 467:1 468:1 469:1 472:1 487:1 488:1 493:1 494:1 497:1 498:1 500:1 516:1 517:1 520:1 521:1 526:1 528:1 545:1 546:1 547:1 548:1 554:1 556:1 785:1 
1 64:1 66:1 92:1 94:1 120:1 122:1 148:1 149:1 150:1 154:1 180:1 182:1 208:1 209:1 210:1 211:1 237:1 239:1 240:1 265:1 268:1 269:1 293:1 294:1 297:1 323:1 325:1 350:1 351:1 353:1 377:1 378:1 381:1 405:1 408:1 409:1 433:1 436:1 461:1 464:1 489:1 492:1 493:1 517:1 518:1 521:1 546:1 547:1 549:1 575:1 577:1 593:1 594:1 595:1 603:1 605:1 620:1 621:1 623:1 631:1 632:1 633:1 647:1 648:1 651:1 674:1 675:1 678:1 679:1 702:1 705:1 706:1 729:1 730:1 732:1 733:1 758:1 760:1 785:1 
0.25241776165302748 21:1 24:1 48:1 49:1 52:1 75:1 76:1 79:1 102:1 103:1 106:1 107:1 129:1 130:1 133:1 134:1 156:1 157:1 160:1 161:1 184:1 187:1 188:1 212:1 215:1 239:1 242:1 267:1 270:1 294:1 295:1 298:1 321:1 322:1 325:1 326:1 349:1 352:1 353:1 376:1 377:1 380:1 404:1 407:1 408:1 432:1 435:1 460:1 463:1 488:1 491:1 492:1 516:1 520:1 521:1 522:1 544:1 550:1 551:1 572:1 579:1 595:1 596:1 597:1 598:1 599:1 600:1 607:1 622:1 623:1 635:1 650:1 663:1 677:1 691:1 706:1 719:1 734:1 735:1 736:1 737:1 738:1 739:1 740:1 741:1 742:1 743:1 744:1 745:1 746:1 747:1 773:1 774:1 785:1 
1 10:1 21:1 37:1 38:1 47:1 48:1 49:1 50:1 63:1 64:1 65:1 75:1 77:1 91:1 96:1 99:1 101:1 102:1 103:1 104:1 105:1 106:1 107:1 119:1 120:1 121:1 122:1 123:1 125:1 126:1 127:1 128:1 185:1 186:1 187:1 188:1 205:1 206:1 207:1 212:1 213:1 216:1 233:1 235:1 236:1 239:1 240:1 245:1 260:1 261:1 263:1 266:1 273:1 289:1 290:1 301:1 321:1 322:1 323:1 324:1 325:1 329:1 353:1 356:1 381:1 383:1 384:1 409:1 411:1 437:1 439:1 464:1 467:1 492:1 495:1 521:1 524:1 525:1 526:1 549:1 555:1 556:1 557:1 578:1 579:1 580:1 581:1 585:1 610:1 611:1 614:1 639:1 640:1 641:1 785:1 
1 9:1 10:1 14:1 19:1 38:1 39:1 40:1 41:1 47:1 69:1 70:1 75:1 98:1 99:1 100:1 102:1 103:1 128:1 129:1 206:1 207:1 208:1 209:1 234:1 238:1 239:1 253:1 254:1 263:1 267:1 282:1 291:1 292:1 295:1 310:1 320:1 324:1 325:1 338:1 349:1 352:1 367:1 376:1 379:1 380:1 395:1 396:1 397:1 398:1 404:1 426:1 432:1 436:1 437:1 438:1 449:1 450:1 453:1 454:1 460:1 461:1 466:1 467:1 479:1 480:1 483:1 489:1 493:1 494:1 508:1 511:1 512:1 517:1 520:1 521:1 522:1 537:1 540:1 545:1 546:1 548:1 565:1 567:1 569:1 574:1 576:1 593:1 594:1 785:1 
1 243:1 244:1 245:1 271:1 273:1 298:1 301:1 326:1 329:1 353:1 354:1 356:1 380:1 381:1 384:1 407:1 408:1 411:1 434:1 435:1 438:1 461:1 462:1 465:1 466:1 484:1 485:1 486:1 487:1 488:1 492:1 493:1 512:1 519:1 520:1 540:1 541:1 542:1 543:1 544:1 545:1 546:1 547:1 785:1 
1 214:1 215:1 216:1 217:1 241:1 242:1 245:1 269:1 272:1 273:1 289:1 290:1 291:1 292:1 293:1 294:1 295:1 296:1 299:1 300:1 316:1 317:1 327:1 344:1 355:1 372:1 383:1 384:1 400:1 401:1 412:1 429:1 430:1 440:1 458:1 459:1 460:1 461:1 462:1 463:1 468:1 491:1 496:1 519:1 524:1 547:1 548:1 551:1 552:1 576:1 577:1 578:1 579:1 785:1 
1 238:1 239:1 240:1 241:1 242:1 243:1 244:1 264:1 265:1 266:1 272:1 291:1 292:1 296:1 300:1 318:1 319:1 323:1 325:1 326:1 327:1 328:1 346:1 350:1 374:1 377:1 402:1 406:1 430:1 431:1 434:1 459:1 460:1 463:1 485:1 486:1 488:1 491:1 513:1 516:1 518:1 519:1 540:1 541:1 542:1 543:1 544:1 545:1 546:1 785:1 
0.98678358432396329 99:1 100:1 101:1 102:1 103:1 104:1 105:1 106:1 124:1 125:1 126:1 134:1 135:1 152:1 163:1 180:1 191:1 208:1 219:1 236:1 246:1 263:1 264:1 270:1 274:1 287:1 288:1 289:1 292:1 297:1 298:1 300:1 302:1 314:1 315:1 318:1 320:1 325:1 328:1 330:1 342:1 346:1 347:1 348:1 353:1 356:1 359:1 370:1 377:1 381:1 384:1 386:1 398:1 409:1 411:1 414:1 426:1 437:1 438:1 442:1 454:1 463:1 468:1 469:1 470:1 482:1 491:1 495:1 496:1 510:1 511:1 517:1 518:1 523:1 539:1 540:1 541:1 542:1 543:1 544:1 546:1 549:1 550:1 573:1 576:1 577:1 597:1 598:1 599:1 600:1 604:1 623:1 624:1 625:1 630:1 631:1 632:1 651:1 656:1 657:1 658:1 679:1 680:1 681:1 682:1 683:1 785:1 
1 326:1 354:1 381:1 382:1 384:1 409:1 436:1 439:1 463:1 466:1 467:1 473:1 475:1 490:1 491:1 493:1 494:1 501:1 503:1 518:1 521:1 528:1 531:1 546:1 549:1 556:1 557:1 559:1 574:1 577:1 578:1 583:1 584:1 587:1 602:1 603:1 606:1 607:1 608:1 609:1 610:1 611:1 614:1 631:1 641:1 642:1 659:1 660:1 661:1 668:1 669:1 690:1 691:1 692:1 693:1 694:1 695:1 696:1 785:1 
